{"output":{"biases":[0.10473671840505148,0.030120731262695735,-0.029175840407504195,-0.0058180904609138285,0.04459182065350251,0.015417237484825909,0.06017463269722691,-0.018825176373241402,-0.006185421486577377,-0.057628708198087006,0.020151037950368683,0.03462083855769468,0.016260211775602162,0.03455385285286733,0.032122898519513596,0.017566500689189503,0.0796613157944591,0.035541992875135126,-0.013166413107380332,-0.026476278544344416,0.007927629825711324,-0.03623328266490616,0.0063529915449172854,-0.009901526915508017,0.002670871117444549],"weights":[[0.12841605824881108,0.10156370615752706,-0.1263372296789379,-0.1491680166837536,0.14032889490725778,-0.22161978048475603,-0.2794421074679739,-0.2416141126381485,-0.16282186670417298,-0.062395862082678895,0.09928759610521255,0.0923890035481489,0.16040388122110125,0.24019310192479215,-0.14614108430431208,0.11752161402745102,0.03401251643507288,0.14146075888356052,-0.08831536892577517,0.15114180432197746,0.3396109378991735,0.11788705029277619,0.3007383802709681,0.19664471419804447,0.08868502411548963,0.11450974188567306,-0.21783094318027338,0.043020003256849716,-0.032168896261317255,0.26419387128703326,-0.038708007185126896,0.007341582310329842,0.08549762360907624,0.07868420796580061,-0.06435109200248201,0.07361259143220358,0.21810085672427892,-0.07047891230713217,-0.06557005630481129,-0.018304858206881346,-0.01089443906934211,0.12814249441529774,0.15292040427357312,0.030868870757878773,-0.0025419460353745824,0.029993698389858946,0.08406693537597798,-0.20043536147046828,0.41685689115514973,-0.1225530009538997,-0.2134848841875928,0.027654969323635748,0.16899480716778414,0.0733584130965843,-0.024139171620557204,-0.18784967840492167,-0.30130860850533436,-0.043560606423223194,-0.01014550284531679,0.09139178493906529,-0.15460171069615805,0.056751821046160306,-0.004705972770963785,0.004892742955186888,-0.07703180678788202,0.17656148715575395,0.09441206584471365,-0.057377431780327635,0.06430804426521301,-0.21045257747428797,0.2619049765713125,-0.17837477804279092,-0.08317493732400422,0.1962087694074774,0.1093654052941249,0.20363856087428886,-0.11045073934938938,0.11425341006169545,-0.2801653973494506,-0.19008049626178733,0.14644317286490158,0.15803848203308374,-0.07211601666699177,0.21282101845858953,-0.05429449029910218,0.030498907054168183,0.0027634280678636605,0.3291774544438535,-0.007986689819073448,0.20104051202280268,0.05495179622702462,-0.014244239318082276,-0.17479184313495666,-0.010767480704367359,0.09156240662042839,-0.035693611993766534,-0.23579035438249868,-0.2727730320456557,-0.05886857433035501,-0.09688060666680406,-0.05279007622918177,0.3233689780431564,0.02781876074956547,0.4439652675299189,0.057239863964910605,-0.23118503648182653,-0.0033713576983663398,0.08869846069464259,-0.12849956318600436,0.2942733365066855,0.28587653973712124,-0.09439678762853414,-0.21530423514065675,-0.25953945944700535,0.320415988617427,-0.11849335330554553,-0.23295704419632585,-0.1474349849134391,0.1288087795311671,0.133150786878147,-0.2169255022060128,0.2037309124018847,-0.10758348536843282,-0.2318554722962464,-0.13398972333029793,0.05041569560155276,0.14648667838576565,0.2244009831948983],[0.09377130830293628,-0.10492655270382205,0.14233831011232306,0.14999028845441256,-0.030120382102702816,0.2541969452771131,0.1832906765449921,-0.08704331338158311,-0.09608833880871363,-0.2304718748190026,0.07396852938971543,0.021061057243197692,0.16140201675071175,-0.16028249853475343,0.0408814383660624,0.16858829988311103,-0.1664411589440373,-0.043867108607948166,-0.021306553236952956,0.03286220472734095,0.19453894883633946,0.0083675842516982,0.043098887998169404,-0.0757029822933675,0.18284100807502357,-0.08962604020240819,-0.0824936579354117,-0.13790575414602468,-0.0969806843349744,-0.1416658376840139,-0.1476322798286409,0.11795439044569087,-0.15543218233684056,0.06533889831270331,0.15547280923494367,0.21119926102243472,0.22716149187852175,0.22565752393329597,0.06556385265418316,-0.10059407994228345,-0.1970383504444756,-0.2165226807955938,0.13880848604193483,0.3437830308235322,0.03263432079000925,-0.10530503261750622,-0.27148345054619394,0.23467598457758532,0.21122622469432686,-0.18363270993068598,0.01877697302543842,0.06323596979549503,0.44268789123895513,-0.3013660078701382,0.10753642181011515,0.0373454499989271,0.07106806826592807,0.36415912689912844,-0.0528379183296295,-0.09102902938703275,-0.10161537552077125,0.18971384893083695,-0.04442821645054553,0.10791937377405815,-0.006631079902221284,0.1458132879732015,0.15557484396541124,-0.07908783152100807,0.07853837416598912,0.1494955819560916,-0.09669223556564817,0.11520790272109996,0.0067191404500136515,0.219951160221261,0.09560092518493951,0.23472704727621677,-0.13459582565811945,0.2742192875937761,-0.1460945639684555,0.024272634783377812,0.09838551590651946,0.07785366017848597,-0.06842503783315017,-0.17913302155864216,-0.13150125380682906,0.3794495962737317,0.02263476137691138,-0.18981779820878789,-0.22081620872694188,-0.22236377188558826,0.31971566330375567,-0.037711193202099286,-0.06414781852558342,0.0728369725709066,0.4117044479198844,-0.18725274800855715,-0.02683535953718037,-0.15475320588679714,-0.10989140708232462,0.256220076562888,-0.02185202122058329,-0.21405800725821994,-0.10971783147831274,0.056053310924900034,-0.18940195372231017,0.1340762917731393,-0.21660735360848127,0.23001462648256357,0.07510907545849292,-0.1933273149811705,0.10790142820906293,-0.06419277202703443,0.004553043139520343,0.31762794512601156,-0.05316342858566874,-0.15533780191668384,-0.16034012280994178,-0.1584514267677896,0.06542925845116986,-0.1228435311172832,0.2676976213957695,0.06693531602499674,0.05407636282159941,0.05814668254409183,0.22041225842022538,-0.12798097726992436,-0.0437926603341791,-0.032709892655588935],[0.2070006408886722,-0.11158309788932154,-0.09437908459285946,0.01582016621958632,0.3534882404297613,-0.29126403574990123,0.08380833084604905,-0.27204885960201025,-0.1778310216897953,0.130128729405231,0.18521197601047562,0.027457746906206205,-0.05746743693084266,0.10141038332105481,0.09996363784379855,0.06171848461927938,-0.1630371665541211,-0.2144214554003876,0.058817760995613345,-0.12012586880688257,0.15858869298721961,-0.03424074651701649,0.17050053948957405,-0.10294447023615468,0.1669377859913404,-0.1714625639540297,-0.27902285309069386,0.31918450818215693,-0.06253603159660351,-0.09378716111349544,0.03872993232813206,0.03454149927272204,0.16093826203222564,0.06649465086699088,0.20376509976311824,-0.012268827200115478,0.10078544929381031,0.032135763351495,0.24562404118289774,0.13049296095508553,-0.13442232741330976,0.17911200261100027,-0.021968771252090454,0.040999390113594644,-0.18356686464583902,0.19674020418010607,-7.996172881564759E-4,-0.291172658035621,0.22174199281828377,-0.13246365585934955,0.06434835087939485,0.016952550213782055,0.1144663350602156,0.03728501199590661,-0.17534912454270737,0.06357918206590857,0.16380600000805975,0.2386541620544636,0.14569589798330002,0.12274266017223187,0.13282313679241417,0.04528817117443769,0.15632779836334706,0.10286619964811895,-0.10428120293692021,0.1439851641739204,-0.0915028198770122,0.003091235478660307,-0.04133815654130869,0.044742045517583914,-0.21960629693088674,0.34464248206057,-0.1104673791732377,0.2724474986999328,0.06890347997606083,0.27757979215817713,-0.04972500809542259,0.23341572282359094,0.24657762794453758,0.07663168179116554,0.06680766096233538,0.2910009496498322,0.119402165111475,0.228205092666406,0.096557810642404,-0.2844121039120516,-0.11953420649453443,0.08764083188134461,0.2696237845393936,0.20620420508287057,-0.015921142180960836,-0.09655353820385006,-0.10637300711908558,0.17612524026084642,0.38169817546726487,0.07352498334290604,0.2406334858903983,0.19219613072441452,-0.11066884176211253,-0.2136668904772579,-0.025948880867169136,0.15658511769528724,0.2399117496468816,-0.019307034451442707,-0.0016612674053299366,-0.27519441321915017,-0.23543503526260942,-0.07540323858803435,0.05881831644524257,0.2723591504866921,-0.2210064878748057,-0.09327337359998591,-0.1525936020204819,-0.17245552163102876,0.29426563530147964,0.019150315815391773,-0.17171893028918275,0.25944053585410887,-0.04989569801735354,0.17100344576906273,-0.017205924812129753,-0.053847001983753716,-0.1238973319414582,0.1656004377677329,-0.026461566233969638,-0.09236267972430533,0.0185005403291324,0.13508560170112893],[0.07610338562154265,-0.07153199559560924,-0.0819499605200006,-0.1925735300629505,-0.2433768946028969,-0.20107919644991637,0.2061696393790923,0.1502679263414307,0.009224938861468314,-0.08092000265291151,-0.011971971904615042,-0.07131545417701475,0.12924099787881935,-0.056517111539716974,-0.08562008444450546,-0.16970140567216635,-0.0983910725317469,0.018304853111604142,-0.25022792623668877,0.1475201881504495,0.0032514570038313186,-0.1004806433650337,-0.06628882315761069,0.046094234224619474,-0.2655364263069492,0.37195143789412805,-0.11072423657051313,-0.14021049204254546,-0.22461550721873802,0.17823536614653523,0.03688629994352816,-0.19392210274919916,0.11527736783795492,-0.022644682041615974,0.035950621799826034,0.29249873824289424,-0.18904964427331675,0.2033510926425671,-0.03385055774252342,0.1300800628038035,-0.08305861180787487,-0.09962408095390281,0.3929592363912016,-0.010729960526523885,-0.2494987354021941,0.15644229923853176,0.1197920182815385,0.30289357179782544,0.3241902477922871,-0.1054162576733552,-0.2556204286071655,0.11818639159067895,-0.1561384023420547,-0.22375302743987482,-0.06946957593047795,-0.1720145920067639,-0.2666916188896593,0.17855948156548496,0.019465501169122823,0.05284268857231533,-0.12303413705338258,-0.18955366806566984,0.19139845980941322,-0.024918219236711486,0.2174850849608608,0.21419109888896573,-0.17338193210184683,-0.12935136083634233,-0.12473784316363758,0.1665320822797311,-0.2217943257004225,-0.044649257629501095,0.11404981345803741,-0.15612274251383743,-0.12097496743542861,0.10358140525226885,-0.009060685906550785,0.17604062398521497,0.049097525996967144,0.20025292199714922,0.22190567468463987,-0.05346952404677735,0.30210453347483845,-0.08293971199778737,-0.10862420977610453,0.19844172959998588,0.20440315651800195,0.17166651104426423,0.1013545010263064,-0.029932160879406696,-0.08631097900793365,0.08186793376367799,-0.13740449400256935,-0.11726375160314706,0.12510715195540625,0.10828037171780368,0.08284207956983136,0.20611562743923098,0.03065819302003908,0.14152854096947357,-0.008906241380096833,0.03764316927643092,0.1935354894087867,0.3594969493590578,0.18944001081582157,-0.1940453368729476,0.062177253328057444,-0.26648614881757837,0.13904453671042555,0.28370458666069104,0.04150005597771028,-0.00971686171287174,0.00879319792080516,0.3332880142473255,0.3500906120721932,-0.22500113466216148,-0.0024933882163671764,-0.19909032107411886,0.2064680098147977,0.1510271568347125,-0.13966503654825824,0.0584643042467925,0.21247260197786375,-0.18470423419332174,0.13104915378080018,0.13113948152218308,0.20764465483388836,-0.205894644004616],[-0.003960027770288709,0.051679525845601905,-0.1838440002012808,-0.06985444150938463,0.3207470574013887,-0.2576073371378374,-0.33819435548935306,-0.1412619749490365,0.030134549188130046,-0.22419351963066594,-0.23077123103853603,-0.024415640746626766,0.05694357279238614,0.2878714835942119,-0.08534661067162946,0.19948946951900787,-0.1513545835588877,0.0387292836087529,-0.061111923652206857,0.11101902488868594,0.2886448392450633,0.17155446477168146,-0.16880115125527592,-0.15291181924356306,-0.16281392226408714,-0.17464035371095316,-0.09823143677392804,-0.15086352845966702,-0.05138455661044175,-0.05754118197185287,-0.11519432011965289,0.03994725656842109,0.031701255673167686,-0.004550484879706626,0.019134392065118983,0.28835488200088777,0.30290010260288214,-0.17329329799651078,0.2612304633471981,-0.20459502093784537,0.168495332986396,-0.02038087816182633,-0.1194613480266401,0.07023986168651522,0.1339583345455856,0.38954759307648507,0.20040446192571046,0.058302645204001545,0.10711078829797031,-0.16402112205520078,0.16152396794440999,0.1896521862179253,0.14961439639535698,0.05759296542573388,-0.25623651072957954,0.1055132234735301,-0.14480267960410007,0.4397126089370876,0.028409993626737528,-0.11339983140414629,-0.12189655668240636,0.12121890843109945,-0.07571528314165939,0.09952818357736405,-0.09328221158232783,-0.036395503062210836,0.06072246249413132,0.1417386878962329,0.18635816983827627,-0.15270851269312308,-0.03928192581433461,0.1717554397972408,0.2661932456952967,-0.1675639271502601,-0.16468038079944586,0.1346827474634223,-0.03212691192138836,0.12065415353434185,0.0392804578798315,0.15187425753963946,0.066161444736755,0.30049534926257854,-0.19497207131495367,0.28261102644234604,0.019561505007976335,-0.13021163314911424,0.04022815734853533,0.08777969150617694,0.2178501973214717,0.25581287764283206,0.24144906293938026,0.25906826699371455,0.24395972524705198,-0.16764543174806568,0.3421515007657086,-0.18232728734431763,0.28848004432590146,-0.22697040888984207,-0.16160117605733626,-0.1350070468325679,-0.01878047861165085,-0.04521420388686702,-0.12447908160554184,0.04483845149572453,-0.004631913406324086,0.009286923240261074,-0.24987328755409752,-0.21894974474856424,0.10745613672101922,-0.11675960534755549,-0.1696538838699905,-0.10225245205866441,0.09845122830241286,-0.029779374210515144,-0.0011872581015146648,-0.10773494539228691,0.10295115532787938,-0.19417783851128828,-0.2963512104936023,-0.12510510856135654,0.1965446371672584,0.14339830281552943,0.15449249818906918,-0.22089070920922682,0.25808059718573995,-0.15241994375078638,0.27883095147523007,0.01709306451840967],[0.22981994348186766,-0.06452294197189883,0.2613613443062625,0.042890479454484126,-0.149174850343314,-0.1390949002616931,-0.26199418878712677,-0.04349191060481592,-0.13600553122773057,0.08279131114232932,-0.17084485639024777,0.17670289784283325,-0.061536925779337705,0.11968947191277225,0.21512347456025877,0.12839090248434998,-0.21800051821686758,-0.030869456975978194,-0.10430830903838727,0.10368958806191132,-0.17042524118158034,-0.081508229761422,0.27561203364897074,-0.03981459767445305,0.14864315835805958,0.2356569218304827,-0.25721023704960067,-0.0799612369909193,0.088272719838465,-0.07974425919988928,0.09746872253022554,0.09079006934158397,0.10459104718101318,-0.06687128480278495,-0.252209411914227,0.18987028386213828,-0.11726954466719133,0.1542087545254002,-0.11075930721678386,0.006596302868236116,0.08904703464861141,-0.0013555092815279788,0.3348728588417296,0.010309734757439314,0.06552499609195808,0.20742188049706883,-0.029216227623460787,0.28176906069227925,-0.1307899312670173,0.08167157577069499,0.28831966426486766,-0.11398349375667266,-0.045917143341514144,-0.12885177918416416,-0.05240860792123997,-0.2257449966827773,-0.2713699395611938,0.4512702263791722,0.03927214498513175,0.13604732611674913,0.09784146819133592,0.1700167028592875,-0.1154065459614756,-0.08257877716996671,0.0727327924702329,-0.041955665818908576,-0.07592971556911193,-0.08140624657258066,-0.10732631213398797,0.2389166882477918,0.14159364179170045,-0.11387953550761026,0.34700161296265475,0.12878137854770802,0.1311561268518194,0.012145112012082822,0.029128697200077863,-0.1805382597401293,-0.2521432722937583,-0.15770533401439613,0.20371122594848542,0.24901745959397872,-0.0677994846058805,0.18580842046200696,-0.21741693491648645,-0.04091927623222776,0.287391699104537,-0.24793847739183128,-0.19415598637444975,0.2649736996848304,-0.0838084270196174,0.2893543780843642,0.10115066004615791,-0.14966775774856508,0.38611434752814583,-0.03882549591524836,0.3129544480437457,-0.14326716541967252,0.22654378625700047,0.12419753298023348,0.2129538870378667,-0.12448624159111003,-0.28504072307822476,0.20486157966300875,-0.03969370795292533,0.310025936725517,-0.0625875356243696,-0.1317959591202939,-0.20644869316003658,-0.22099558219803264,-0.18335024336941558,-0.014047891324014362,0.28053305831851405,-0.06084310546808128,0.17049066142998942,0.0314462435200349,0.13774458453878213,0.13288225898049705,-0.12426351612535734,-0.12152892837154432,0.34914184037533225,-0.15312133027747848,0.24596150845567435,0.02361559766752978,-0.18725764021946684,0.059642407287375285,-0.00881906392614878,0.0583705622481797],[0.19857952205616838,0.12275766065761164,-0.029173424372486944,-0.18144984209739762,0.07777100553609231,-0.09118151205553524,0.10738180816172636,0.13349872569199786,0.19166131933462927,-0.14071417934905078,-0.06673629336464024,-0.197291734053245,0.06911937657440849,-0.29387134597368325,0.08210244201544677,0.2882279023532019,-0.07372622244353974,-0.16078118027965513,0.23971812568809492,-0.034329018916487826,0.37448965533152007,0.13200594667528365,-0.17301560571588723,0.10098789839800512,0.13175660068535489,0.1448655168051756,-0.15246598009841292,-0.16179055484063679,-0.18966717351381618,-0.08348180852619623,-0.0719626371282439,0.01355043765248058,-0.09397535064056203,-0.08623674972473544,-0.2752489498028219,-0.13669866189879556,-0.10470963869123007,0.12599392112304664,-0.24872011348319162,-0.14806661177960026,-0.06603441284870326,0.14713271527373945,-0.14977106632157955,0.22272297591417042,-0.23532438980835013,0.2679292627729495,-0.18727345417526636,-0.21261567453969812,0.2766908987104112,0.004464179596354526,-0.21299726124229548,0.05812630903203703,-0.033958163060105045,-0.005568442895246145,-0.20914186514990651,0.21373309285110695,-0.09116561643698955,0.02013530518735996,-0.12002254667862247,0.11027027081613822,0.15667048637197334,0.1609306660406398,-0.11043432087519423,0.06976677166331374,0.06886928135061038,0.21421360228625563,-0.18973536079556294,-0.0566057718167348,0.23980585706300975,-0.11591005441313486,0.060813397664702666,-0.23058328285170412,0.0020914934570412627,0.34673825432155797,0.1467386463775335,0.4315951995644133,0.10784803635794633,0.20528727903791236,0.1705484785295836,-0.0689675669606805,-0.10224058201845207,-0.25499575704707966,-0.18906439132107536,-0.24786811378216214,-0.2420187014309094,0.1425449953372042,0.23540922346712603,0.14659430124288722,-0.2038260516795236,0.11048419226472345,-0.09573713998199293,0.21146454490259295,-0.12017580611836227,-0.14461899161719988,0.2216295225545221,-0.1977703884808237,-0.11733379305152221,-0.054538918491642406,-0.15241254410024146,0.119355104973566,-0.10732191462066304,0.15726082391635646,0.3507791836829996,-0.054133618613271206,0.11921067150963606,0.09674378003478824,-0.13040337675228675,0.041644514413774245,-0.024659902392553387,0.37494279958856536,0.0740291706568654,0.21065918256364766,-0.046833279467511604,0.20402842933098836,0.19144091377837524,-0.1549472239682551,-0.15917065719294474,0.18414061618933178,0.24882298857541965,0.06539587730721232,0.05002826156235413,-0.08899824051952769,-0.09398917277303867,0.1394677964422673,0.019613098716463443,0.07059872606085127,-0.18287161418971293,-0.0527153749798278],[0.07228584813507155,0.23682634345250955,0.07570152603859195,-0.06587219183792471,-0.0460403078232943,0.3276558821783184,0.267481032950513,-0.06942194034268524,-0.20663540794841279,0.36387616043463383,0.0968065994971575,0.05026956636285364,0.11585485999979864,0.1538315939690448,-0.07568328900271452,0.31497278986235483,-0.2154638780703791,0.07478924093548331,0.22685976819089948,-0.10779451336066025,-0.053089927466201906,0.15299208294332567,-0.1347638664569595,-0.03877476851851818,0.07174565455216794,-0.05149212615492449,-0.25719624621847254,-0.14185197720289883,-0.10883975834389151,-0.027049839941755666,-0.1035281081283373,0.2432207573174943,0.18545234272431976,-0.10203029731222663,0.13244923272321693,0.1893856786934153,-0.1522273141680699,0.29422278615581776,-0.06995560427475372,-0.07974138353114109,0.10914063456230914,-0.03282021536358931,0.16727251488028388,0.08857529063586946,-0.0052864354161180505,0.10157481102097837,-0.16474212898689686,0.1287356958136538,-0.08527418228445041,-0.14001511605247463,-0.23967844920489145,0.0030638989020592786,-0.23811741571965564,0.16702759295302114,0.10385286532830082,-0.02051264504231942,0.0930133046404801,0.3267623597698244,-0.023089102376751866,-0.015687238454996852,0.16173499355374438,-0.28479242143006844,-0.11575650446451885,-0.12244885671291436,-0.0890955385301042,0.023224782498017873,0.028216009155564912,0.21551323202094594,0.12072256012591687,0.056007511277956966,-0.18915871758081518,0.12332016065624686,0.33209954832027666,-0.14874210415792577,-0.1809483818198882,0.2450158003751793,-0.13801821207451703,0.05029814849918632,-0.11786318277370135,-0.11188764738105282,0.01556096834703342,-0.22353104620676764,-0.20825002774140708,0.25068129411070184,-0.1117410343671828,0.050152891088514014,0.04402960399128605,-0.0062073055315646705,0.26379563827008534,0.1460722547475131,-0.20530572862469396,0.20913641235096647,-0.13585877668600635,0.1666313081995823,0.372076367218359,0.01059515855209584,0.15099440703215258,-0.10814471709049067,-0.26353408695937525,0.1554040676140603,-0.08940034492713106,-0.052097131181325695,0.03865478981289813,-0.0183502243076767,0.19381422362120812,0.28646849009510295,0.1306230596445242,-0.17720995684216012,0.14724648917790362,-0.07387075970700774,-0.08471150118118602,0.1230308859295231,-0.1624475014752072,0.054131734227292845,0.37366537006735745,-0.258260627097252,-0.1167545089594251,0.2547225117770575,-0.31647895123697195,0.26336593218984816,0.08146808309652746,0.03724705505965213,0.1921040812002453,0.1079444724804111,0.11261298177652253,-0.03017935224247382,0.014372528459269278,-0.19816456229822127],[-0.22278928545547708,0.03958157016009087,0.05535943925071123,0.05565805506073089,0.1779222720569236,-0.20087781723814516,0.36546040998463125,0.06549668842226397,0.017776167743440978,0.12151787734586947,-0.004428539678790441,-0.2368592349441457,-0.0937203519399818,0.22286104058673925,-0.13522047932015072,0.15418041320111175,0.11884031807457066,0.029156236394569362,0.20514314397645012,0.11396654941955844,-0.10954278485632912,-0.08038504613162024,-0.02867790161583431,0.18771055298281156,0.2783672413012281,-0.21096111144935556,-0.23876349026257557,0.042014130774508544,-0.040037164197213426,-0.017558977994219294,-0.017776907684986562,0.26907788134227634,-0.06667192554931671,-0.09252986099607814,0.23023087909623105,0.01674734864110004,-0.22676783304497966,-0.11401778529148883,-0.2352267330588208,-0.14361741135409445,-0.12817534296705446,0.03393625671543803,-0.15181455704541225,0.18408762415104435,0.07901425974022526,0.122972021697169,0.27824085492762923,0.2886626042529706,-0.05505284338626943,-0.11106578379256817,0.1266387124622307,-0.14628291781711736,0.11240305354524548,0.1259210167990479,0.07376575915921715,-0.18084703116804546,-0.25832160464800447,0.007987673840225145,0.010324248456110014,0.05169421840011678,0.1375993731826482,0.23284644270922933,-0.09792109192479855,-0.07132665005042012,0.11803620306940114,0.012781146385930446,0.056058225525554145,-0.008129556481751912,-0.05720568399322927,0.13118062091161656,0.08798566272507527,0.18799284220055376,-0.18264636800492212,-0.12680720401865753,0.1734946723626826,0.24337270245274162,-0.1451170972525054,0.04922938703339209,0.06248418598657922,-0.09858039484873635,0.2574642696010459,-0.1322961471031022,-0.14360993189887378,0.17457642519899774,0.15337811453588285,0.12087332656172707,-0.18255400609947248,-0.018600826763615415,-0.1375634330687114,0.01687729267362335,0.1540256876512072,0.11201894054178761,-0.12906303089052346,-0.1957499955028689,0.2919995558549011,0.04322355578525362,0.20564610502330277,-0.12302686611473636,0.2592690905035148,0.16862462720271587,-0.09910445959462384,-0.05466310430054861,0.17952654515925495,-0.16984451943458312,-0.12357291498099429,0.23496312975134204,-0.15371507118282052,0.355279403981994,0.01982002510202932,0.11814662029716111,-0.04457156084603322,0.1530155831030666,0.28765257406974426,0.333821150686338,0.0461339362028866,-0.20710989987927378,-0.22922710222290266,0.2978630907504678,0.10857601981668875,0.16003447681299213,0.12007772328426532,0.10644579310985126,0.02309777592569955,-0.15625705574898865,0.025332814994389982,0.12659895047672945,0.023782673317522728,-0.12192217960543994],[-0.13739973207823927,0.14591361018702365,-0.21747905234758141,-0.1475854023332065,-0.07544031000539639,0.23392879066482808,0.00821214943924313,-0.14632234147904397,0.345250137177929,0.10636433873284815,-0.12423997577564898,0.1652024117471272,-0.22915915742897316,0.12789258613759374,-0.2832956942619624,-0.24869101673726174,0.21648825344012235,-0.1605025488034508,-0.21117507408240418,0.1255772608006921,0.06306040904258464,0.18730218044882743,0.16851582561108813,-0.07308302202585228,-0.13853824975714832,0.20183222635889586,0.16983202505378928,0.06292680630577062,0.2518682739846988,0.04873888993347138,-0.19945675782917932,-0.07142261037208297,0.14668867962185353,-0.1680624870109749,0.18055010979386277,-0.1004675306721342,-0.2295885359385894,0.14560729616667478,-0.12469539875129661,0.31516694120442174,0.028971727458759613,-0.16061929810572664,0.16115779762187826,-0.06310158436048476,-0.21314802472993083,-0.20342879233777633,0.02097251654427607,0.03639914934469048,0.17136769915084288,0.0333298799819811,-0.16769134077122488,0.16833087203167874,0.10716404096486813,0.10206775065543,0.15080659026702156,-0.019062456314340174,0.07271768264288786,-0.2272187399156437,-0.1637553335330221,0.17680744391352085,0.10870407622344691,0.23760826184395745,-0.022910127900352375,0.26092042625321,-0.06681492090784694,0.07416483855587246,-0.1886781890044934,-0.10435562801342207,0.19333774407204926,-0.143758939139756,-0.18108921728532948,-0.17101711938810185,0.1288565679011199,-0.016479348211782686,0.007742695554424009,-0.27272854726037427,-0.03981984180368975,0.07552773901319665,-0.07684107083140847,0.2046391458668453,0.1062343859165822,0.02193189766216171,0.18271642908232247,0.10539419111572976,0.16091734264874347,0.16813696668022643,0.015603214495449534,0.26696062981611846,0.14457058522286576,-0.1775543847922211,-0.1688356996204682,0.07781465841594172,-0.11460367727124966,-0.04467376111747982,-0.1577297603813875,-0.11025313366442668,-0.24337548765408937,-0.26086311129112255,-0.14101654266347788,-0.14644802148940314,0.13064402770475442,-0.0627362667067401,0.21452877429289538,0.24150885650455578,0.14575828852039296,-0.24723222562332406,-0.2215185701093283,0.007827704610306402,-0.10733491320067932,-0.0588315045042452,0.14625929266201262,0.10113777441890112,-0.22964467953883713,0.11836097665279748,-0.273925792697285,-0.19948413509541124,-0.3473198062806569,-0.138995312654269,0.18609672864139426,0.13976944777879136,-0.24031318659642442,-0.05274411375191349,0.14420981499663646,0.1900413192924049,-0.21880579705730235,0.08928268727876626,0.16464888744898484,0.2394955316045975],[-0.1264049580561304,0.110367693398663,0.12981813341735118,-0.008638297321161273,-0.17196863037114082,-0.11653340818328996,-0.04730818726804974,-0.3035366327165825,0.19026618081397217,-0.2061899097827183,0.13935973961315568,-0.21197205728319635,0.20064216023664053,-0.11810532832246554,0.17365752087199932,0.1226204931771633,-0.10616334769446498,-0.1485809613672796,0.05786587380378512,0.18865204131134528,-0.11049017780393323,-0.24174253928885514,-0.17382389995912273,0.2906450076774403,0.022504590691145403,-0.1892146775531796,0.23456454608399122,0.06586591745134993,-0.21364028380819153,-0.016481062186961236,-0.1887798400857672,0.2573631226984939,-0.1689285079403013,0.12090904104969104,-0.1927179424836624,-0.08139135651962624,-0.12009873565675659,-0.1100161426650487,-0.0646003002446432,-0.07121220146252491,-0.1434603852043033,0.06481078921540886,0.03407953575964431,0.08193253514012001,0.2611606619142291,0.04904584523186208,-0.1747404475352879,0.3166923808822112,-0.21654351875765776,0.17128166533290798,0.02047110717711959,0.151951925681573,-0.09825594827233466,0.24424271874488193,-0.019720000397145415,0.3219738721278358,-0.16809535180702542,-0.06351062171036062,0.1842563033380431,-0.13023713522999242,0.013807556785946034,0.11505484344392815,-0.18132893940068015,0.13454287628752037,-0.11762953711339615,-0.04738120231050281,0.08813288902880613,-0.08149427683127163,-0.20389532081737685,-0.14998854336387446,0.16411926453051345,0.10362819042044906,0.1858259923569462,-0.12683531730116865,-0.06883665885515204,-0.08633165555995082,0.14822996779526362,-0.25540299632348074,-0.01964075353570687,-0.13035904190688632,-0.1306868376556268,-0.06763942758302322,-0.21756745786757595,-0.19128282170057742,0.18798779909988203,-0.10021529421923439,0.10061705993428333,0.07316773666892773,-0.18996918173804597,-0.0013867325785778173,-0.17068302961821671,0.2337435032279241,0.09208927133272987,0.2585097847498816,-0.0920285559542732,-0.09745735263325735,0.17404879681931879,0.2198057041140464,0.132576041746466,0.07706497542694216,0.20544295778972446,-0.1622438345155621,-0.285832192494279,0.00702628220544117,-0.2427093224416896,0.23369520251715417,0.3459243351820772,0.1188703208283782,0.19475453354227545,-0.221698412853377,0.026803971439951606,-0.13522815899840035,0.1492563444298824,-0.08123682672740484,-0.14189179915207392,0.04681650197095267,0.23414191355877462,0.1342475739469562,-0.05200662819649629,0.08704197326388458,-0.10700982242458199,-0.03837718522003384,-0.053350978211435716,-0.03711011838450318,-0.21514983431012422,-0.21144244432589077,-0.1876057826872718,-0.30999222896234546],[-0.22991354345637932,0.03852457164132585,-0.09846476416885891,0.04256888233161954,-0.145460197724219,0.07815210221632353,0.11971551029402594,0.24174299836331078,-0.32822718002715784,-0.20819705271915376,0.06679681643136458,0.1464335389581133,0.09896290809135279,0.10999005223864453,-0.21748115544810195,-0.19399603117632166,0.11963951865917434,-0.18590752897392238,0.12785254273432653,-0.0599756041013188,-0.1299011732192216,-0.04110625382835838,0.01888676812755023,0.08026005508000032,-0.11290915924716523,-0.15879277605727718,0.13954774061393416,-0.17409957228309347,0.07922824446177024,-0.1558726035766945,0.08907226181202624,-0.12021195799414612,-0.06416557175681024,0.06136926181158564,-0.07792667106379439,-0.07886568621344146,-0.10307044907423919,-0.01529888237497946,0.19454552388581334,-0.09258428075959298,0.07605791289391044,-0.21704859122845654,0.2515928325376954,-0.2687904090196571,-0.14458500384405806,0.35633635216888354,0.25959257026492966,0.2502443712777655,-0.15454438722874314,0.127230393051937,-0.0326146414696418,0.004590990470946713,-0.07970998441570733,0.1497614461003136,0.2203666460764995,-0.03734363696841625,0.06723103836625702,-0.020802248362737967,-0.24195061105260132,3.542721994310117E-4,-0.19179025379032869,-0.22897483877868322,-0.08775794653283951,-0.17951263138848858,-0.0798207596002168,-0.004625513917488004,0.19037482393956603,-0.19305607704749267,-0.06122568809079656,0.2385114396463407,0.19479768553278062,-0.08524562369565619,-0.008401443776604504,-0.007765064284576177,-0.06429526540017227,-0.21556053927929306,-0.04126621323385489,0.26106834870659396,0.13593603227659826,0.144577649207441,0.05385272644240441,0.30519789807784786,-0.15307552010022135,-0.1694140378682732,0.11987783908172495,0.07767987271489388,-0.0797766054108524,0.23928897127999127,0.1827667338962447,0.09618465486423286,-0.0949277748233807,0.24209911883398832,-0.10485324141949988,-0.040672856664384305,0.047518620462714406,-0.03555673967807259,0.1901963343826121,0.30932790746591554,0.020938291594132182,0.0010946522448152896,-0.050097531522683536,-0.026428583950192857,-0.04656941546807226,-0.02912763127897002,0.12821623100629967,-0.12545788140746955,-0.2641811451732252,-0.19948914023458988,-0.04354894258209172,-0.17113363802539053,-0.15914253906186346,-0.0851510191921811,-0.15153513958864093,-0.06025746888129793,-0.13500304406452943,0.44640367041119355,-0.2255877642192524,-0.034792954171361155,0.22217623149355914,-0.1930234419932773,-0.025901811068767995,0.15295884450931457,0.14183962214766366,0.14707380700985923,0.05368357310212621,0.0020484651807183662,0.03752821074037395,-0.2011348196237527],[0.22584510338769265,-0.17278717959885284,0.12305660470837035,0.1554653193934076,-0.08710307712778043,-0.057495794457232324,0.15134157456318473,0.1436965969925338,0.06796995937255164,0.004125505883027435,-0.20615036243388832,0.18331783749809416,0.07225268978998751,0.18197381868623697,0.059785348426633335,-0.21262743295964387,0.18092482297948098,0.20721662997320936,-0.08667682078377005,-0.1355502443594891,-0.047219644983212065,0.03815856501388735,-0.19718764692780674,-0.2243179448408427,-0.24633570245500494,-0.23616169009410928,0.16233676965293603,-0.05354478277681801,-0.22603263613857183,-0.015379160521693105,-0.250835506870785,0.18368667726453844,0.053652948007014756,-0.18350582537378557,-0.2507412905967101,-0.18484515856232941,-0.18006483569854642,-0.07525959612003273,0.03233287904768621,-0.18967341159032186,0.26924576055800087,-0.1713854255678672,-0.02189194450701865,0.192543577856259,0.056456829389046094,-0.02214335722764376,-0.23865090595646327,0.3298856342093779,-0.039548400352649664,0.08940137696404787,-0.21466364356924494,0.0755646589214043,0.20302182936208676,0.1519017047436632,-0.2534985853002969,0.2865654992711579,0.14039780295801457,-0.08168141014721572,0.08333234475802101,0.07163304421430895,0.11859807923995837,0.37575664314133306,0.16921367389117978,-0.05190993005390972,-0.02162030693903425,-0.16767797029257617,0.2796949060190738,0.14518195471378653,0.014753185484021254,-0.003922253557097449,0.3128127004354357,-0.11338782416477061,0.08341078183679308,0.0020092143632998143,0.10390303488077601,-0.20594439673202497,0.07830326876948956,-0.14586354015458378,-0.05178288033636603,0.03823630515989137,-0.22071364542043184,-0.24196096950081697,-0.2649936878187033,-0.09231822374556953,-0.23975549096960355,-0.08626270306353254,0.13991024193454527,-0.17701344832225163,-0.23505974536613344,-0.02341528010999037,-0.04427237574495622,0.028887852730316278,0.09047984666133967,0.04230063912588076,-0.06049220253577153,-0.022221064766992447,-0.1547632856629831,-0.06981665407033162,-0.20186818439677798,0.3266017071736465,0.10628215979319847,0.3177954154417951,-0.29772787821949975,-0.2370343187092195,0.17939106797060136,-0.0457794632888821,0.12896424836680315,0.3883253147159795,0.014383686104411885,-0.250625691852133,-0.2233005199205487,-0.06406083149440858,-0.14956270754057088,0.044402336858139775,0.05069893179382986,0.09716695399388689,0.28449447389110677,-0.3008099859441939,0.2550553198577441,-0.21453130750548954,-0.20614625316353682,-0.04713755335409347,-0.1043185236128977,0.22537386951782024,-0.1456430287069471,-0.21029847642350197,-0.05130038284404441,0.3337682449006384],[-0.1417765507061893,-0.12007038777716128,-0.19192907476916923,0.011543836378088023,-0.06188511561572577,0.16337499331587188,0.14929467658280576,0.0053414069905366075,0.23555947040606295,-0.04059750169739058,0.17107724164543053,-0.009790334306254218,-0.07222273684838283,-0.03921872429529588,-0.075427406381392,-0.16251609247559543,-0.05175231567574452,-0.18012933028956252,-0.1906883553221114,0.04826651834752988,-0.09303336479960993,-0.1675187252066688,-0.20608906232931987,-0.09154093695286561,-0.22118312514146352,0.13321196182927567,0.19095350540608236,-0.1525572259524414,0.2445266033183821,0.007024849632860305,-0.20566005022083722,-0.06327202932741402,-0.0895718594943334,-0.08574510099765785,0.050784226389346716,-0.005649507750644688,-0.03904389488154641,-0.20768035909759783,-0.24970000083098862,0.011213619292279238,-0.13583004534284301,0.05278659538797881,-0.2809205531013146,-0.20902163827274484,0.25369102279021477,-0.03506028096111932,0.27383388031213385,-0.012342206353627963,-0.12411044115777928,-0.1324837188978736,-0.24547881570420377,-0.08169402633637876,0.1150384869378894,0.25532953202367753,0.1569589491610122,0.02345873324713477,-0.32026427702853383,0.1730184433767113,-0.009633608637468899,-0.016941860270459193,0.212582960400199,-0.15663480853520273,-0.07187485624586365,0.1749944634607218,-0.13466813993783894,-0.1555964798697003,0.18343359975893883,-0.020719432611616576,-0.26949947631349974,-0.024945488212857803,-0.08976650183264653,0.26296509339114904,-0.19493126739716357,-0.06919872196797133,0.1268130642170087,-0.14487541411589358,0.10911149874502639,0.08166549565160469,0.15297916067618827,0.15691821947051232,-0.11912964885278822,-0.004519904357246475,0.023401546507252048,-0.07299310813670204,0.2777665960846049,-0.20764157559916172,-0.22280528193399624,0.26970878915856644,-0.2370246101032348,-0.09807929591633366,-0.17359601706061564,-0.2102358429029398,-0.0636764794543755,-0.16805553144601368,-0.09444987746154529,-0.08072925962613797,-0.2166294556879971,0.11421768621760155,0.23532324301570967,-0.18890502099495415,0.17808649588143088,0.03717912177792761,-0.14414926284597626,0.2029785282505902,-0.19683232385299898,0.10738062767525204,0.33668048343523227,0.09461554011337685,0.19779870174788045,0.1627063359328995,-0.2493073795574198,-0.21211825296882278,0.3065083646721636,-0.061189980743486354,-0.08028869396989265,0.20636211389822223,0.38627343118706425,0.06369206941149,0.06357378836272772,0.04799881823158453,-0.06857789466847405,-0.045186825254777,-0.028074003807123684,-0.26268900131412226,0.10154864566006212,0.13634525065190645,-0.057265192317512065,-0.06897656372724398],[-0.18603366762395618,0.10831459841805063,0.1846960800877437,0.02632211238021926,0.14484842589986788,0.14943391449735355,0.23851898325056897,0.3424788362680631,-0.038848804027179,0.078485102104117,0.2242011799276053,0.20754976627155644,-0.10256988372670368,-0.19192112371562584,0.1542344580766368,0.05539916367684351,-0.1665683761833632,-0.1340347361123034,-0.1555821337223694,0.19593266786011387,-0.1596204924721505,-0.062377233692312656,0.18181953411376292,0.2553035638061688,-0.1691782031105723,0.05595149089116215,0.13871600030347409,-0.10711278811663726,-0.308423605239127,-0.014422104204988805,-0.257153204227985,-0.04422310390185679,-0.047516430878363144,-0.03570088886693594,-0.22709397497344233,-0.1040450672207751,-0.0014555409061566113,0.1381750451052589,-0.05072952831616151,-0.1179458017286163,0.11482884403305063,0.13533467050444822,-0.19592720641047595,0.09802708963414646,0.20537659056954038,0.15364274073227563,0.19400236754911668,0.08008997888511253,-0.2423989277254476,-0.0028127699481296856,-0.23752430103812575,-0.069846107004265,0.14718316775745957,-0.21793941202336797,-0.2394159958562637,0.13369458363017772,0.3733004333093588,-0.03243264637684165,-0.012899528281542562,0.2874330501514042,-0.02577727479875551,0.2866727709991999,0.07858034028332359,-0.21066496070609528,0.12323709950196117,-0.16671366341366672,0.23687765774569805,0.1818308172112706,-0.10149011983727356,0.2580011702194657,-0.07777392345498893,-0.2374155071881676,-0.1910934063062002,0.11572220891426707,0.07145979822102848,-0.18352477971195771,-0.04142708393537345,-0.2812035756369246,-0.2386550937386244,0.162143915514072,-0.12468495052608927,0.04498949203756165,0.009283200352264516,-0.030698727379474645,-0.160436256731024,0.09132972436329088,0.14277917814059796,-0.020704897450544945,-0.1157073548524973,0.3110874592490898,-0.09493945869454302,-0.12638071818756408,-0.0963410691093404,-0.08965605779520898,-0.058357707452045125,0.12952568452175867,0.2004398872051186,0.2081841119302899,-0.01490641477232877,0.1528110925144508,0.1486789865637815,-0.23802833543719165,-0.31313675141625,-0.25082048888724007,-0.15794563957410182,0.03243290930806077,0.10035397847271618,0.2097165628734311,-0.02803808083506626,-0.32946747663798365,0.2512351941948875,0.22438373136412085,0.11416283803352018,-0.064202053965847,-0.06348110519666623,-0.14680629988822824,0.162224891038384,0.03161564729479956,0.09438298167166774,0.037634177760884076,-0.12826798338942927,-0.17877770000936744,-0.2733970825987052,0.18925834630338165,0.16377723734953412,-0.11611318616928719,0.2525128738769729,-0.09738068567234891],[0.04064522429914335,-0.10889204955907746,-0.05395287959479776,-0.060743200811969655,0.12324619077097376,0.25410095644127595,-0.09873629849133568,0.1979861674459698,0.2493063093489477,0.18985993009466054,-0.03127306681783413,0.18296564602196155,-0.16432379308461784,0.13161996170354304,-0.15856097122996562,-0.23462109874067097,-0.3337151280572971,-0.04426248529642312,-0.07106778617538761,0.08307645214228847,-0.08592490441059394,0.13494604187063786,0.27592987665714996,0.04110216159838717,-0.05375920666578318,0.22220418085890284,0.17559170864108797,0.17836287900102268,0.1246228602355551,-0.010148367850253128,-0.27749101629607775,-0.025283396196488946,0.145176162363878,0.03272457274081761,0.14935358889649183,-0.17282220336596177,0.07968058962033521,-0.012153611915962157,-0.14924674073183775,0.10730919072620161,0.08021054650990572,0.25596499724265814,-0.1954986708222602,-0.0186776875873543,-0.2120883781084918,0.0470595222286514,0.3023701616901941,-0.20863252016459452,-0.12898190034705154,-0.04771739631716571,-0.007002536923891102,-0.1674752070922775,0.1062032399485408,0.09201409931890077,-0.17856250340861432,-0.3750249046458848,0.3068782698777131,0.02730862718450844,-0.07435949845260689,0.29283416002542284,0.1609736120732369,0.2922211356179232,0.07446421250060992,-0.008927308563384083,-0.026685825896890454,0.16410638035249467,0.04792572918395267,-0.013716671443060638,-0.30503750692956455,0.3092521430172769,-0.17428070291396688,-0.23376039437967017,-0.1966653001128574,0.056225487667901364,-0.0786885256409228,-0.07414297371791136,0.23007954479893242,-0.232320665706348,-0.3186138665701342,0.2476340414194221,-0.04961352760583643,0.032832356772651373,-0.19764713735065279,0.04242189638297199,-0.13611374780060526,0.09762233585181092,-0.2631369067494057,0.29638651264071364,-0.16757007661182977,0.2829545618715948,0.13528046700182278,-0.06661941476183064,-0.007995750785225013,0.16997120730495327,-0.07030145000910193,-0.09415980940248225,-0.22321457611196388,0.10952842042268243,0.024338018151433438,-0.19662810572020886,-0.10344277114839688,-0.011374604177039779,0.1980787317662689,0.00421969644118064,0.13039449436480863,-0.2490274689815345,-0.09607070925762907,-0.23475392250888774,-0.032180711405064136,0.2088754864264425,0.20340841937883247,-0.19675230413332148,-0.026331655260057176,-0.05876626770042361,0.08825142147907099,-0.07402342019692353,0.040607332577670255,0.2695971044330838,0.13938473609931673,-0.17516327596250617,-0.09641467881637762,-0.11630614911659824,-0.2572198666947025,-0.3093867908961325,0.15884481090725353,-0.02820483890864531,-0.14384498184745886,0.17775637323854845],[0.18621218457751357,0.1430764291283666,-0.017878631300568337,0.2735443294499034,-0.15268154327100028,-0.31152694148630466,-0.19952698529970847,-0.20943582704048017,-0.24228526133108447,0.023719221521654607,0.19397654467775285,0.08020539718473504,-0.14296543851608298,-0.2175095558997579,0.23793759248115465,0.0840834175642637,0.24520831027571538,-0.012105479377016535,-0.06832970938466565,0.13579903006913552,0.02230417674544529,0.008527928448654491,-0.14746103024266027,-0.08021247874070281,-0.2025731813496256,-0.0627674975382916,0.16170273206598468,-0.12341406366212074,-0.18762387684546836,0.0979316801225486,0.06577216589040807,-0.09006777876248889,-0.10358639013175094,-0.03509343265938846,0.14114854786851241,-0.18916123004349253,-0.11545170410696928,0.25867726845442995,0.10463394072647084,0.04302076321902702,-0.14076831138567078,-0.04359133866529282,0.07426022354934902,-0.1357056999292239,0.1735439199378935,-0.12859995305204394,-0.016246827008948302,-0.17331838328844598,-0.09913065344332568,-0.19670625031241806,0.23091047074762658,0.12614151981035146,-0.11713084608662672,0.2498046193419419,-0.0967516150288549,0.345329668827373,0.10898975896626403,-0.2211757844339858,-0.06313364453449795,-0.1614575705548046,-0.09944160261127968,0.07552706168625228,-0.09165606553362515,0.22546044611510466,-0.16870606854635078,0.07472642116807639,-0.11928087816756416,-0.1508366145003664,0.12743724921854188,-0.1713411452330732,0.12037776690433086,0.045123023695768996,-0.1781439719597781,-0.018109014217588044,0.17899605516059117,-0.10951133238297181,-0.05305337277481653,-0.04468941470265741,0.014844180591740959,0.015158965654085905,0.06191749956781809,-0.018101130495268902,0.34149913563203843,0.07154244100839002,0.1240898823058732,-0.24303239808740673,-0.08395661399849086,-0.05110780272148087,0.11283678723762647,-0.2972145000240394,0.12923873722606175,0.02391751421389835,-0.04566596676624631,-0.16390952883079354,-0.031069116115948724,-0.0014417426488767574,-0.0886996301961497,0.3371166943161453,0.04685048702739619,-0.24112628893913204,0.008318252811490096,0.0847063898521518,0.0027036965273956872,-0.2531321921068476,0.16392696002860388,-0.07687392909277337,0.2584841424959098,0.20560736346208489,0.05770833723461993,-0.27218481916210113,-0.18691243483554715,-0.10912971449481458,-0.10351443795329467,0.025718015652729822,-0.13142407976117942,0.13752136411893606,-0.029016925709884667,-0.039068046575984956,0.04856782899775075,-0.12112563825641574,-0.15205214949866752,-0.011648253577364681,0.041886974251670844,0.2812130726410515,0.2832634703357426,-0.07250555957726196,-0.20229162297505265,0.14901161184925757],[0.27987798908566713,-0.12277696457848307,-0.09143198975385987,0.253768838311628,0.08210140743348522,0.10305346542218549,0.21383245862371766,0.26317337217816306,0.10160315935138574,-0.0042160062950406,0.43674483422412763,0.24523488380860534,-0.01541482688157671,0.16490825549073931,-0.008583607428134146,-0.21872227351021342,0.07905006747171857,-0.024279758540634102,-0.10892886638242766,0.14471959619771588,0.1336041575339873,-0.07843218445673968,0.29459323214965993,0.03636210888542239,-0.013756993496895308,-0.10026697154724737,0.2025672797329569,0.06896401046032476,-0.04582395023374156,-0.056550554759724134,0.2734064828979682,-0.02879445210833378,-0.1177980782656491,-0.007826031664938253,0.0804415195881962,-0.034149855384546166,-0.1365103057165742,3.690584376688852E-4,-0.14804402336563144,-0.09883668819428014,0.26428764358349327,-0.09447933711456702,-0.0941689517825223,-0.09415796075397716,-0.0019874058000249675,-0.14700165415112892,0.2915997036857479,0.18759911571549429,0.20905725544794132,0.06215423495311036,-0.018578628377577726,-0.09949752670251891,-0.10744066683989549,-0.30874441142970516,-0.0976098469665735,-0.13376853105077735,-0.15888427215630724,-0.10444115290629102,0.04535471106989959,0.0766355123606889,-0.001967331923827383,0.010356304969285907,-0.19055781941194538,-0.10474053079220093,-0.029658482588521197,0.21859326063519063,-0.12279942646897446,-0.054431453006780706,0.08177842094890625,-0.2858028030659112,0.0686765003368841,-0.29731262688578214,-0.2148308001036895,-0.16262415338654196,0.0971347794418977,0.13105222403652225,0.0955429393741764,0.27486226504482264,-0.07660973685448852,0.2675914954528864,-0.2200097418957213,-0.19520423797249659,-0.248660589656944,0.12237057458965989,-0.06425937110183236,-0.23906059254723852,-0.022746713961102224,0.11730942309821894,-0.0575570281206896,0.05037610292830955,-0.13196181177984384,-0.22239657125520773,0.11164687552032262,0.02158140080686728,-0.016003098125346445,-0.1393674003997502,-0.15797301121386434,0.2664155572354326,-0.13131257278765135,-0.14553592616227332,-0.2100972572391874,-0.17813642959383905,0.3186721664339801,-0.21100293657013616,0.04002958375306538,-0.11232779644787738,-0.08223811597502072,0.3079911591281339,-0.036362269428520076,-0.08532396790329684,0.16012283730046553,-0.16499711900394545,0.19958703009292705,-0.1426706145394776,0.004684607203884227,-0.21393175911952167,0.29271970309270273,-0.16819904691542728,0.28855031119315433,-0.10041815893902296,-0.003708165091228181,-0.1689778950570563,-0.24468038942005743,-0.15380249103390697,-0.07658926984724249,0.009658894579754709,-0.0457144463241895,0.12286202311340286],[-0.0013529367644147677,0.022197106460239473,-0.19932176267844368,0.16045496097504375,-0.10324620042220879,0.06104536563702422,-0.22270210623629275,-0.13214194142246588,0.1859559746091885,-0.17285104872730445,-0.062165119430297705,0.18439979388596384,0.1415337621565628,0.30591916373774675,-0.25401598509501194,-0.08984242549223327,0.25276758124836185,-0.1000446744635795,-0.15735549021130593,0.068753588187187,-0.04323005402601127,0.010382890256389481,0.09917638375617266,-0.23101687191715556,-0.08714519003820072,0.09225478292571816,-0.03825874553242484,-0.028998265542477714,0.14128408370868964,-0.012062774766285544,-0.01186128514901103,0.22102830901268514,-0.09798300992000959,0.053484301484410586,0.2669696368572551,0.11334224392905644,-0.05249712902707495,-0.16360139883926192,-0.15216535850694415,-0.13511600875900553,-0.1721286779257464,0.19807458578196105,0.18420182658907133,-0.23640189506786358,-0.15126169137876064,0.2994943227446304,-0.10825556760438611,0.026555029706136744,0.10640811888267727,-0.05994799135129625,-0.1424840833679339,-0.1284095915666426,-0.17280622446524302,0.26737244337523824,0.12213593925083874,0.06998697127782615,0.13095620215679693,-0.016137305856586102,0.3136647311638034,-0.057466902902336824,-0.20369520377541708,-0.18058724806417475,0.0323336289188209,-0.006887573599186354,-0.13677973128977425,0.15544378417226173,-0.1079666535179237,0.16674221279096857,-0.21576171605187414,0.16098713285390565,-0.20752853448003492,0.22191829353825748,-0.19739865438723025,0.12889935927379778,-0.01979863041776723,-0.12161154176098392,0.12256076866155591,-0.2048875797543605,0.11012048370798296,0.17943513322084004,-0.19771248811878403,0.1465540648178809,0.13592841706116765,-0.04510632658898262,-0.15455305917669784,0.049111280911168294,0.03739727363195146,-0.10490219849480037,0.11893180769359232,-0.1690437857312823,0.10482578383097997,0.3246050852689788,0.05738245513476359,0.10642422140180732,-0.20756235462988198,0.040339066646296724,-0.08980991392417532,-0.13938707662923056,0.13982171598749388,0.07564363375129383,0.29633755935208445,0.14742284046083393,-0.21285383493046015,0.23234325925961763,0.028060152899900662,-0.3077563584913652,0.0615122238264056,0.2154256504444857,-0.13381064474269774,-0.3080274824234109,-0.19485907892607407,-0.06113160467368663,0.10792734326327909,-0.06835782448807368,-0.03834390572492187,-0.053212479508114266,0.07636227176034512,-0.1426268118012427,0.15634675943885845,0.11771102872913859,-0.07734192021615462,-0.15183994146385107,-0.006250681329989161,0.3263049755140631,-0.11559265603925309,-0.030943950680759322,0.046025688534734294,0.23587082751044805],[-0.1508121827440987,-0.1109122666297496,-0.15719615344086416,-0.14514589405255968,-0.08816965228047037,-0.0570293669908481,-0.1344605822781208,0.3064523711219224,0.1314954166781246,0.014306892429930875,0.06029960775951525,-0.1227750378945339,-0.20823217402028665,-0.22808128755888601,-0.2825433264568048,-0.05802075465526595,-0.18629415075823658,-0.009330946975709,0.028166543762065066,-0.1252731609153953,0.11846859380743224,0.28657189859796456,-0.1318166290114816,-0.037836908747574054,-0.11273768995213426,-0.01658021562829665,0.0013533183899498266,-0.07917811067817994,-0.026219439231932283,-0.06369992362174154,0.2711343225424125,0.13242517708585758,-0.1089912327216936,0.013790816002945027,0.2927031937718395,0.03158986723416439,-0.08575404441192601,-0.2288711830897741,0.1304616174273691,-0.15473674640455298,0.04730682970797166,0.30153712090776497,0.19052859048211196,-0.27047539237715196,0.18877018615480418,-0.09306298772979814,0.15913391327119744,-0.029635024706147175,0.28199469354336393,0.14377904834808797,-0.1701311380927244,0.1571008310639004,0.17140484662040514,-0.2924233730566331,0.11412236394595708,-0.2899222291785562,0.23974083313957062,0.08428405405762071,-0.08430884466015866,0.047342250377222915,0.0679220124935052,-0.10431539918549702,-0.19493592622427308,0.06477902256328916,0.17203597205255083,-0.14345831860889144,-0.06317919056666822,0.14900295139009606,0.004057023393808791,-0.045129289147352716,2.6097702506524265E-4,0.1201102488855576,-0.011229407622304495,-0.11051113683562384,0.05790464362459868,0.16417502194090208,0.1671319272064238,0.2002451018128771,0.11745090435159959,0.11684536314358121,0.16561226150038044,0.023559381097103833,0.12073700805179186,-0.09467712717693769,0.07247122380681181,0.30222331759377974,-0.12605508012087593,0.08729500189732398,0.0383615589341014,-0.18197505340797918,-0.17979945643561718,-0.1041720411467024,-0.08793172264363779,-0.04037959101550228,-0.03163171404536246,-0.050339025757553654,0.03831612464121822,-0.24482240675576653,0.11031951749127358,0.11637465386942707,0.11075800563849764,-0.11186265160817113,0.2177192422139873,-0.1450525254614739,-0.10589814752632504,-0.14328067184088006,-0.24802548320420054,-0.10502592616351264,0.1756158798110121,0.1841588692804062,-0.17701199407137164,-0.2012864604009606,0.18634477551083609,-0.18862665112287189,0.01867776848720392,0.05082508941401068,0.09725092374556406,-0.05950479208787379,-0.05898926860174035,-0.03545034993750971,0.16927973134022095,-0.11244672462262784,0.20618108528215795,-0.07808455447585035,0.011283214995231317,-0.041587584382657035,-0.11797126222973972,-0.2571462536192296],[0.21989089455642769,0.24046630739263966,-0.07287209966018555,-0.06467925633998077,-0.1772863004845867,0.010873216430998311,-0.029136454995457577,-0.22529937733280322,0.2597121095290702,0.02232391241420597,0.033525963885825585,0.10585703065139285,0.10781751131744717,0.15973444833440956,0.09028465305518871,-0.026601985709162005,0.09039127811672229,-0.1555364317867616,0.15753689137404825,0.08627554040254151,-0.12603390637071069,-0.012575037674420067,0.17731570946671077,0.02666442532621149,0.2695216701225843,-0.22580039792334283,0.08562199215774693,-0.058633227494095844,0.21576728785831473,0.08984430891116074,0.031243674386942945,-0.07263461851486501,-0.022318668133791405,0.05790091874424627,-0.25769335765328,-0.21321507979140206,-0.09868134403127891,0.2914143464382285,-0.033425426467726976,-0.03533497747212634,-0.24501894687276807,-0.007683918733812232,-0.0866925822570849,-0.05562859478190001,0.03287000845273855,-0.17317588428635597,-0.1505712569957663,-0.2255917526689026,-0.13943195898477964,-0.09689554445539494,0.016638841964304808,-0.1332638524543032,-0.14242807324546838,0.052854020403107535,0.1952637243196448,0.001410976618845305,-0.2517210080537657,-0.11528769570735,0.29970126473731107,0.0905755093537981,0.05438372463009275,-0.062094931281122874,-0.0964149310909917,0.09797586058632532,-0.18852158570492664,-0.046776448651519434,0.13289560305588874,-0.19399230598275546,0.1622698282790741,-0.15100510412079335,0.20106930680517895,0.05366933292152697,0.05236841123407943,-0.19038901307100037,-0.07835842188594791,-0.1409538979696195,0.1618054950353987,-0.10506016113064391,-0.017372196219401656,-0.11641150841456921,0.14576554287231547,0.31735595673635414,0.03257545415172832,-0.12844029307249197,0.04537598505243186,0.10915900226790962,-0.03233328140374469,0.25691196456189186,-0.1916623080264729,0.08269746573853318,-0.014837393127935163,-0.16007293623387764,0.1213735213741903,-0.15962107884728824,-0.16484976941053936,-0.1450780915822669,0.08181294473294623,-0.269737565255052,-0.10943338739862628,-0.01851583415620312,-0.17632715361188522,0.286364170377959,-0.06838897809270121,0.1807797236923355,0.13826351123136754,0.13662268948671627,0.13649768503667878,-0.24491216575263694,-0.10599386789282811,0.0643696509160622,-0.020809774524280476,0.09104340883768536,0.041520502514639616,-0.21001773441522667,0.006862882102929586,-0.09778635206031994,-0.11701941594277787,-0.18910107706681023,-0.09411921615661913,-0.008349089872742698,0.2602621840251109,0.10269998991159231,0.23470779853550547,0.11158853054993319,0.017746824273232282,0.15735577161985354,-0.09801494977013356,0.11004954818630859],[0.10925308111901255,0.15471635871290346,0.12638869713929282,-0.018451592708928405,0.04061132591246787,0.10479938538726229,0.11804788783310213,0.33037137800929695,-0.31032808482934937,0.192306184477187,-0.02825240335815505,-0.19602578374288082,-0.16404093888855278,-0.205756374952905,0.29437315784998597,-0.24984814527651258,0.14705020192114943,0.1131264453381843,0.09891589360368733,0.028933772792640495,-0.07928629097477691,0.02234283203506121,-0.08563140594336056,0.26776510235952017,0.14863278184298637,-0.07840919052230186,0.004019989756730443,0.06457698693893511,-0.21779113202920478,-0.07012561672796473,0.21502050579640128,0.030573546608810596,-0.16092716226165846,-0.0030936843939606135,0.12810744880101232,-0.039670414458774624,0.18150103873939305,0.07706340596850264,0.13309989262962532,-0.025923842910599994,0.16050140927474524,0.049797097936835365,0.006784879879694309,0.06728033324236943,0.20380077797072957,-0.16036133814790612,-0.15638144089967512,-0.13320399030204205,-0.1440369887194822,0.11894658804856735,0.17911402395585171,0.11382508611661306,-0.18817567954677608,0.022775556736473915,-0.14662966377542253,0.20391209260083454,0.14616642638880398,-0.19393582052902533,-0.054702792205504606,-1.4531051908029087E-5,-0.14870967812012675,-0.0644242466601344,0.05509540237061223,-0.06625060542723968,-0.1533274954185215,0.1393696099240761,-0.053028039444293885,0.1384251077202921,0.14028475798780957,-0.044213787113089376,0.19671422766718732,-0.041844777349886786,-0.04386209099893918,-0.09525767234601519,-0.1544626987345269,-0.19074684450345594,0.16810527318404886,-0.13658052508049826,-0.09450821133766939,-0.25605004327146635,-0.11894276100431238,-0.12741778574510482,0.23985410870648996,0.1726506113085934,-0.005978267614028609,-0.05108964328009846,0.1996691079341886,-0.1734512751378333,0.22912139195011,0.13043069499237547,-0.209356742776112,-0.13759420219719856,0.09728035509747131,-0.0030701655886157422,0.09643372222917541,0.06551852006572544,0.12075396665955597,0.19274413676409285,-0.07658717894215802,0.0888574516496848,0.06353180036298077,-0.2581954620165869,0.02192391171239828,-0.19613035685064809,-0.06457909993399975,-0.16895099275647688,-0.23762961978503205,-0.13711290061089101,-0.00695089213104418,-0.11723057517016856,0.15145772997362875,-0.07926656935680107,0.14876823488999855,0.2601135782837623,0.09604092089316092,0.07722474909520646,0.14635040549165562,0.10378409827506935,-0.1720179032646931,-0.0903683008605947,0.17556808631604703,-0.10524921578795998,0.19187220339065816,-0.17643247614945,0.13428202413661997,0.11273162287470898,0.07584740979551624,-0.18771032508616006],[0.07594769150411752,-0.22354887994008318,0.1426510206245486,0.13419397747938203,-0.015407284014272136,-0.27627531641629915,0.07088162192765002,-0.043559597989890356,0.09188612501700939,-0.07582263270016523,-0.2262616623374494,-0.1940635259452492,-0.17642836169940668,-0.046580832389354156,0.14321305166449294,0.12763228148613756,-0.1542278615145522,0.1948909278935985,-0.05594256023144171,-0.12655374390436944,0.11861958818025439,-0.05608797396961297,0.2760968489889566,-0.16039132303963669,-0.11840078349296268,0.0040901641697055294,0.04488360338765397,0.002764150559982011,-0.07009525293049579,-0.16530969883761173,0.2591998007760659,0.23652791797571812,0.1058939994628503,-0.1837649592684154,0.17610211848065585,0.035105160530407326,-6.856368863429481E-4,-0.01028613060502556,0.23605129085789447,0.048568916053944866,0.24321519375297854,-0.022543054807105424,0.09094516515985977,-0.1550350604310957,0.10247806244566873,-0.20068158740930692,-0.16020531575857686,0.05230868089544865,-0.13982695235574932,-0.05408399937238595,0.16342968162823457,-0.16317511971542395,0.15972037138888212,-0.28210540423457386,0.14223560140654587,0.06880327380350132,0.11003265246863249,-0.11134419173808408,0.2551211807121188,-0.10283540755697715,-0.1841873723162329,0.1162816130263553,0.06852718533375139,0.20897286985314562,0.1498126502794957,0.09495524421670135,-0.23543419454619208,-0.0012033215298280536,0.16750565809882267,-0.035807542100983636,0.0720285038449572,-0.33333692099066814,-0.26544713454856766,-0.14396083475769353,-0.1643264283988529,-0.15122243372919655,-0.002901786836544522,-0.12629724864329053,-0.16503084798636633,0.13522055902211816,0.12856036658767017,0.09653443031442589,0.1803183956493986,-0.0664090696994047,0.19249350350197997,0.027871820661262505,-0.07604572614043167,-0.10068284474622777,0.008640170176428702,-0.2732603248560548,0.0178633876488441,-0.14217600854837287,-0.18330239919001234,0.23442903352512276,0.14800336238022876,-0.07603063293408868,-0.1433763076411946,-0.18265192509585945,-0.07702484939107183,0.3095517257836278,-0.09226712071569354,0.23663637831482748,-0.2479101863775644,-0.2651436712718116,0.12879162433632224,0.17562558408582601,-0.01685987695836413,-0.12040347041700342,0.01623541128279983,0.02145543309950029,-0.0718877466863925,-0.16019007128902774,-0.2473254070782581,-0.037408512516116564,-0.1181725168038069,0.15326037475388612,-0.24250110139410158,-0.2933045437872422,0.20962850333282743,-0.19424036678620432,0.1801791961538253,-0.10447451510186467,0.2426991486622531,-0.09001399462617979,-0.08395583325076694,0.02616532251899045,0.08335006452768935,0.2722298028093701],[0.2009842552792026,-0.12805100052013837,0.12888118916683933,-0.15479290916923494,0.16048559313467242,-0.08805387469515016,-0.15700910499882284,-0.03448572401100835,-0.028707013897269474,0.06903486800779897,0.08322678988244159,-0.2540631665425073,0.08694009207115962,-0.04685519482806338,-0.029261978746318557,-0.15178111095098615,0.09620822945231279,-0.020905326599168186,0.1215283917250503,0.157797000050659,-0.14272670719725694,0.02101919953892293,-0.24239887635985577,-0.19307392044453126,0.20680152094378565,0.19196862245127705,0.019052565265031744,0.07538962538240293,0.11688793921420877,-0.0488287582263409,0.19577487359022713,0.1489379474082342,0.14106992698418974,-0.14399690535183612,0.13512090062068402,-0.10744375997429843,-0.09889253179782569,-0.20945714795962012,0.003256343804384088,0.013145610397775166,0.040781760148863,0.19874046889136898,-0.26295540572028625,-0.27233883706923434,0.2841166859440916,0.004868496547995312,-0.24920396090090535,0.063389148827046,0.053087938929201405,-0.19307130457260763,-0.17889556857484737,0.15920353508805152,-0.02228079167192868,0.17930841752368915,0.12403453348733526,-0.22952148256668872,-0.26465843504313424,0.1395265668792657,0.10957907962180481,-0.10466558547362897,0.17559972956595454,-0.19523168343672062,0.03843368909918727,0.09039724187585069,-0.07434419004927556,0.17539337970708133,-0.23820569510898348,-0.18604512580609406,-0.14863248414406624,0.09104906084327058,-0.09394017047224679,0.1024276219747024,0.03461069638694163,-0.10091871653870044,0.09805280536170553,0.007764891786645427,-0.01240886540769391,-0.020337404417193408,0.2641635196274979,-0.12999542369430925,-0.03579652208695694,-0.044561942968095,0.09823928519078659,-0.19347466524700738,0.026600774282329542,-0.23439436411299255,0.24220281799250384,-0.2184101753970138,0.08454911504410138,-0.22533599346147415,-0.12145128303269609,0.03594825498068595,0.054273238938453476,-0.0869639541629498,-0.20761032339733723,-0.05837711834678278,-0.0692904240908548,-0.08333090703734013,0.13546320842829135,0.20793181107007594,0.273940116255339,0.28070308927629517,0.2781890822907696,0.06003043153923056,0.08704639701774602,0.06702265029966825,0.005089007179432023,-0.23124620621072026,0.16561815993703397,0.29477124636350577,-0.16305297196543717,-0.1997079049129026,0.08166397488393352,0.025486150884092004,-0.05222765620047356,0.15783981470554698,0.2074363983657897,-0.2814355530152581,-0.014129234274193903,-0.18402877266579615,0.2564159870697862,0.01070397716674488,0.2263601655236689,-0.3065275004496383,-0.08867021468891546,-0.0960380202104022,-0.017753692773322265,-0.10645441813265763],[-0.1219974638810991,-0.045886724581868744,0.13547826807409544,-0.15014222831875665,-0.157078336748647,0.2895437653644929,0.06216703088615977,0.21714842755858732,-0.26466813840854103,-0.03136249443782338,0.0949744094649633,-0.13693904670052537,0.024662177374794196,0.10437511168562573,0.18359854387242736,-0.12918076311915166,-0.35901715728483274,0.06856052847379678,0.001447219064375313,0.10986193890636536,0.057193375523939154,-0.10035154614165906,0.02396154215639874,-0.18545563485509706,0.11444808510235871,-0.09592625069776567,0.007919500874419443,-0.18909958518567332,-0.2924791177495336,0.20324591490827035,0.08693228120708966,0.2121590311848118,0.19449485251114776,0.08488204330298312,0.16415317657503872,-0.043393399432130594,-0.10897886505524779,-0.14318475195568522,0.2416284826363436,0.14909670094726846,0.3339823090152653,-0.21902110691843332,-0.2631541630856659,0.001261406511580029,0.2048103661494893,-0.21195926205610058,-0.2546986345367476,-0.02258737955631514,0.19771262153225452,0.136819502148506,-0.23174989760582382,-0.1251502999904428,0.08852586706550082,0.20238116479777243,0.05105494270428722,0.05448414400636544,0.20733439427840114,-0.11217636909384777,0.2810532732587001,0.08484598683647143,0.1621972288850675,0.017548140257560775,0.11924006136383736,0.02183831729068279,0.12066386155821211,-0.20102712635110492,0.2472560711370275,-0.14803796655444781,0.17874913900481446,-0.05989443767063299,0.19511823379042326,0.11529500891062539,0.04651886942736745,0.11297119796846289,-0.02302462301327179,-0.21351146337950913,-0.16613764308808673,-0.12417877151333313,0.07513190055742552,-0.18106558950192977,0.025838362069080596,0.07942197579856183,-0.19311225965255388,0.02024906097020232,0.13902027186807178,0.24425565265859417,-0.28641798387841694,-0.2329170849744696,-0.21796569473797997,0.3103529142652183,0.061975768064285446,-0.09643113523810748,-0.07069562024440797,0.18231371791527304,0.011233433161716412,0.07396401661246228,-0.15204330692280754,-0.16706106164591727,-0.18402679982283598,0.33572447072742834,-0.24506020501594572,0.1477085758951575,-0.13200899660386928,-0.09257965304728874,-0.2791414641910341,0.2895254873495437,0.23564546336764397,-0.054810597551065945,-0.18626574912808522,-0.13651788682114002,0.07106501661084197,-0.19250935960372656,-0.16267659467490111,0.010929233320546971,0.10591567208604208,0.1281513742768349,-0.08058539753522985,-0.008666934251520535,-0.25314026994737426,-0.1970162148137405,0.20302437503899198,-0.010296265328730878,0.17858142656694445,-0.28319677273092564,-0.08753316208022494,0.13001892198165507,-0.02229562105619759,-0.0771490995671409]],"type":"SOFTMAX","num_nodes":25},"hidden0":{"biases":[0.04215561706286557,0.01870678918207273,-0.006135381232507148,-0.006241032279016317,0.04029129345732964,-0.03754943832908574,-0.007518017896109349,-0.018703279808079044,0.008899143571688849,-0.003174704853601681,0.01416226082280932,-0.004827937935309058,0.004152898141339103,0.020241412036598027,0.020139675628590557,0.08653862779519832,0.010549532063147437,-9.905629221009405E-4,0.010424830780989899,-0.010276113890649977,0.05324473327448559,0.014267037964281188,-0.006337431147972393,0.03318789089780675,0.03261544559157294,0.0243144151183295,0.042833255213413766,0.006731790824006645,-0.018013228969352844,0.012021498477809745,-0.004452522042275297,0.02519600991930525,-0.01063818639432855,-0.0063044887644592065,-0.01507545362917225,0.03239839455826992,0.02201699979238931,0.018234386413930704,0.030209874209674296,-0.008493356970471282,-0.022815523629502954,0.011834874239982548,0.015908002844564666,0.06675195724872175,0.050222397459233445,0.04633084758339778,0.01012715174489691,0.01939521165269068,0.05112256492037451,2.3694893414002158E-4,0.011215077162079161,0.006965530763036111,0.04376524452732724,0.04308553674680589,2.6130792120802047E-4,0.04387707568595801,0.004305950838655527,0.05952157605211689,0.016387911245063662,-2.7634330678617664E-5,0.02995691064138427,0.04691682146033259,3.8474328765410496E-4,0.024669536225845293,0.007458967623484444,0.034246910418456705,0.028274604173433922,-0.0011743711464140233,0.033156471160723906,-0.011483446739296526,0.04927835208804199,0.03159618629615385,0.034174240988164434,0.033642963096106884,0.03206535006258669,0.07023836860134598,0.005394013910230836,0.0480343821743487,0.016329311878126716,0.005427993087828761,0.047297146926311956,0.040435986495814626,1.2554535652178805E-4,0.028253227815278552,0.01976645359982793,-0.005662618265552723,0.032198530210260125,0.04856596853164554,0.022897339173446146,0.059550797886971894,0.02915892340967578,0.046949457959676935,0.023433455789170738,0.004775448979852198,0.08602924722753064,-0.0023215053522783573,0.04848525735535318,0.02443098849603627,0.015967894305103994,0.03393641513835059,0.023441705041220742,0.046943259666879,0.006566907751192335,0.05039548643795727,0.0032709114640142554,0.04473266948743052,0.045418738642156745,0.0436824831775507,0.02240811280002913,0.07069437828697976,0.010343213540222884,0.016963696978377216,0.03752003405399452,0.015999713719207265,0.052757190955880925,0.007570922463158975,0.0246375571392762,0.01381035452957394,0.027474926064714102,0.02701681662898353,0.029808173403336125,0.00955523440625171,0.0157962610785506,0.02469911930575856,0.013970336482473554,0.012685077316273942,0.02159504922805497,0.020919985271358972],"weights":[[-0.05065209921437083,0.03831244724863282,0.014336348077690311,0.06864230685316344,-0.013835379563799901,0.05471388448548559,0.06324017566310484,0.023318022436027055,-0.057612529269393545,0.08033897393265915,-0.0016865541331905075,0.06884273349348015,-0.02850932236057127,-0.03374300860814854,-0.03989606265262479,0.07642669666244839,-0.01313178627063672,-0.005496615303843652,-0.0014654857823233967,-0.05787364913336262,0.0648583039987406,0.05701198733235697,-0.06051849057518867,-0.07488964881358665,0.0023344314637463383,0.04916381217292811,-0.04430608133229621,-0.059160958295169395,0.0716162405930835,0.0716169653228681,-5.027643304990488E-4,-0.03724495184056092,-0.01663558073253577,0.00449017278016324,0.07588659262099058,-0.025482237478304047,0.012459801924624609,-0.0014910546916987407,-0.027590668568387877,0.048449119368347886,-0.039903157578599455,0.021227275644862716,-0.07026532739212221,-0.029355324559517747,-0.05396802454575158,-0.01951988870305214,-0.05388868960612692,-0.07989222201710294,0.07332307579780989,0.034572036379545805,0.01850787369167958,0.051325126590078304,0.016892682722826638,0.05203083880553755,-0.07227495987465933,-0.0742956884753507,-0.06422705511189569,0.07856031185181911,0.06927236646526178,-0.008087555147466424,0.044085951033237175,0.022609423097183737,0.0551129780159901,-0.00821098626577107,-0.05752102837561656,0.011452675623399865,-0.05461525424344175,0.07218349771177132,-0.04935022751610954,-0.024141724181433163,0.057088952465799314,0.040652678401237485,-0.023003057921087353,0.039465479089530145,0.0358443919716494,-0.06937294168763418,-0.0011280548863231313,0.055974986908755436,0.050947876414032915,-0.026560128686594915,0.06889052988743916,0.06867398800549146,0.0031094297443749336,-0.013522028102649297,0.04549208164258592,-0.009654407120456843,-0.04838412648616942,-0.06374467402452233,0.014187517549574868,0.03241913453660977,-0.07533793011214535,0.06509876993125151,0.04779047939527458,-0.01827978731318997,0.0751920203106089,0.019889381442503386,-0.05485741834768374,0.05033292533934423,0.0603833238355096,0.06069283538434544,-0.06304385377921928,-0.04788044925633226,0.036424451895244826,0.07157979737796592,-0.010154061481116859,9.69083247848862E-4,0.04343726252163577,0.014947966791396247,0.04640297684434422,0.04936648045180819,-0.0024578620964347264,0.05971081865924671,-0.0626742131806936,0.05497887321802411,0.002572020702225189,-0.06038706655141112,0.06155655348379452,-0.01624353331261702,0.05709639174384948,0.06512978705320979,0.07995785464094961,0.012837118471658174,0.013110063927256648,-0.07631457726313584,0.07988304183825938,-0.031489439146533085,0.06179993554919036,-0.039064224226609684,0.04431231310949631,-0.06420001915486084,-0.008886338184397664,-0.03607773882881013,0.02219831957764168,0.06440876026756942,0.0018835569316863615,0.08004102471453756,0.06246956414615376,0.026542820622355023,-0.06296302097599629,-0.06620216097437318,0.05774430064489386,-0.04151386643821006,-0.07128418523899568,0.027214522542981845,0.042710598933314914,0.07491236419133501,-0.04976850644421835,-0.060349600379252286,-0.06412729443254815,-0.02421614603939348,-0.05902826329792389,-0.005220535415234997,0.045489058582168805,-0.043255496972286235,0.02154615993605838,0.06788143788430903,-0.042310192410138926,0.0345880292747015,0.011010020008741765,0.08740107149881703,0.07567537321565651,0.0256349130690475,-0.062195931612191876,-0.013938860386214266,0.018770718001244358,0.06656731793101014,-0.0035310086585132877,-0.0032953940299505075,0.0673398960014795,-0.011684282612144617,-0.017141614227592694,0.0039312431993374225,-0.036965376832600885,0.01145858982970445,-0.047339741020800755,-0.029216196086083612,0.05305392970092249,0.02327067325034196,-0.013915077866889536,-0.009912693973983613,-0.0355550687079902,0.04157083018489192,0.05047974476566798,-0.04799357941696902,0.0014993006883442699,0.07339406039628474,-8.827760900100417E-4,-0.021801493878002443,-0.06634179927682446,0.07717885728689491,0.02756395668654052,0.04240956960763807,-0.07889293555251427,0.01742804937287451,-0.05692972997973453,0.032212397557535674,-0.01324945658413286,0.0457024927183832,-0.01587662565441783,-0.006468298726893695,0.02198237688311175,0.03823596171949317,0.06219090150579908,0.010956780772954046,-0.053288402457204134,-0.01489665987220842,0.0218882006807486,0.07343589439582873,0.013644608496604064,-0.008581545419839609,-0.019037587692180852,0.009453224930512956,-0.01762009933523358,0.044893139550432726,0.08353825590996863,-0.07119598947030609,-0.11242437078694667,-0.037748814225180984,-0.037076824295984134,0.0612951286376135,-0.03435274581531893,-0.06305992008552005,-0.03297661114227812,-0.031005542365313964,-0.0022325119326585957,-0.07561550312979694,0.024462583832122492,-0.0610192432960269,-0.07035795828712393,-0.014730892955944432,0.04088517542133227,-0.07668344496841101,-0.003225671673454289,0.06613637985292432,0.0074793612918054335,0.10927121161781281,-0.02265757460897187,-0.001583598121951958,0.00954245510565661,0.11183701830265608,0.1025895014629041,0.06972857316626008,-0.033537713156998133,-0.006602398290314711,-0.006444066838432756,-0.0356884319800571,0.13031434344989604,-0.03221535544776489,-0.03918802799511378,0.05148850390626672,-0.01148461462692521,0.0384436495432383,-0.023834483179331005,0.07963009620685449,-0.06576057165588947,-0.04754241252905539,-0.02720947703180305,-0.029124225433655594,0.037214872583418525,-0.1012814217730506,0.03805897426520026,0.08499317142113054,-0.04657714619351383,0.004873965730051348,0.05902725772128811,0.05637080728068636,0.062108422776475075,0.1651300249109922,0.08547566350301339,-0.08405586910554008,-0.03757588969037332,-0.11960881836649921,0.0443218592576895,0.017738017934755726,0.12551535908293548,-0.0497648534233156,0.0261812814813032,-0.011154009954704905,0.06900581498327413,0.03264083123309677,-0.005973904222756926,-0.0774410697235192,-0.06999804564512889,-0.01225630514210521,0.009025067651582798,0.012057285269398161,0.025033346389840547,-0.05553761695927179,0.06657175040154933,0.049454717519531795,-0.03152017048296407,-0.0015692254110613393,0.1323551087964578,-0.05666502093608433,0.056694380405972127,0.08247368952893228,0.03187867149956914,-0.031222689320131627,-0.16299799434011175,-0.020949535938247096,0.03023986811273617,0.12675925320100967,-0.013730526931431493,0.041947083626645065,0.03511330560383134,-0.06773558387621981,-0.0436341854399336,0.0469738265565908,-0.07610588218011718,0.04718842156800815,0.04681861540899421,-0.0025016789434558363,-0.018425704745866654,0.026242959173362838,0.04690621317611504,-0.011324298486346225,-0.05025548677004561,-0.09740923157645602,-0.06112416751737445,0.02751006826596701,0.07687016497670826,0.04429243238993094,0.05416953733593303,4.0467957926403845E-4,-0.06268404725330806,-0.01650116472697177,-0.005274573220002578,0.012825052159865574,0.03209835206358851,0.05616408185964527,0.07563213174199644,-0.04487112707696141,-0.04846633937501065,0.06976198833063638,-0.05784285172556913,0.058335386343053075,-9.332396441868729E-4,0.04608139616158269,0.03991115670221977,-0.05289577643532041,0.054188891634370524,0.04734862656255965,0.022704224647509073,0.054940624357601,0.062437440570874136,-0.10530232861611336,-0.05074691944870853,0.05771115825780171,0.055648945527115225,0.025103009909047083,-0.028727564250329032,-0.03922433808647844,-0.08009459409909937,0.024711678127135508,0.038601131258705304,0.010452867002534727,0.009940071804203848,-0.08158986945107054,-0.024770933067007433,-0.05794314547506931,0.013014754658111461,1.1044508082357074E-4,0.0063817436072085565,-0.044516043624143666,-0.07391596618642851,0.07082546788791938,-0.03746219332259313,-0.07584481993258971,-0.028880528788881442,-0.0025113815330655527,-0.03275442178702831,0.022968766370004185,0.06108583596911943,-0.0379868184312799,0.007379625854314525,-0.009720976898760074,-0.0110832395733189,0.021179224360794235,-0.0025367546822201432,-0.016167078893168155,0.0760364182657417,-0.001085226183197679,0.07021214563739211,-0.05320009285887519,0.020669822937406754,0.0024251359167317015,-0.07982608723989833,-0.09752716186020624,-0.019787453699996873,-0.00874664175463219,-0.028011468901180038,-0.020953611278814614,0.026070848155727827,0.03768728549542388,0.0563346945334329,-0.035838521881247365,-0.022478161061850757,-0.032216162878508404,-0.050382040231395385,-0.01367626970662898,-0.08324022107940539,0.04816391649598918,-0.014288883987356636,-0.047025811727074686,0.06778758421016594,-0.03656265810198729,0.006508081596931125,-0.04999181061497041,-0.0043914515118673916,0.04624334300396312,-0.022710083200203325,0.07603627587712689,0.03497653561389848,0.06028108476067187,0.03005788458364617,-0.0426778123375559,-0.08148213295140819,0.07384278559895588,0.026945387876169888,0.05985289565711588,0.07234253343548272,-0.06036560912649818,-0.0747866583903275,0.07922366003891135,-0.06644511049791411,-0.05460041502116275,-0.024107706194867736,0.05499415111632124,0.006873542651225082,-0.00146580593679279,-0.05069694912633436,-0.05923239660815157,-0.06838737994511629,-0.04230994072474675,0.026813763625029255,0.12501473099730664,0.011126744725681141,-0.004958406882644727,-0.04439671232491581,0.13731497545674873,0.0903950323495328,0.12116232430593635,0.06849381455566926,-0.09955679086648409,-0.06109077224532115,0.04117074741900298,0.030083223426339012,0.03546748636238771,-0.02508042981755782,0.01721756752597854,-0.06863506636219209,-0.03857335294744457,-0.02787278956850131,0.04489743315263839,-0.057664141392995846,0.0663565292045714,0.07181647809607632,0.07188809556298427,-0.004616616343408622,0.0828652663227669,0.0017887793037972253,0.045162255263907915,0.08636837958746466,0.08040808939789869,-0.07610625534503788,0.016756361648325644,-0.08035870415445444,0.16616518090148436,0.04894274412230618,0.03291131891071507,-0.01988798269930649,-0.01103209884617974,-0.02638275023408513,4.3791633233988825E-4,0.04133909432590427,-0.04915811898070663,-0.028146970495871775,0.06319425297870782,-0.00717117481530101,-0.07082913230428609,0.06283177984631273,-0.014363808580461618,-0.030970357552824634,-0.0039139017348140915,0.06027072076511774,0.05988891049385899,0.029028995981813577,4.7362996809347495E-4,0.010464322237704793,0.14822523354067774,0.031184614714355328,0.06677394227209246,-0.004694785903507491,-0.14670843009804016,-0.13574568232210832,-0.03822506128082461,0.007592677642521773,7.407369751297801E-4,-0.00311100476780964,-0.014963705316898918,0.014516403071702232,-0.0669243948090426,-0.027389342443355752,0.021681014540126595,0.021733597773090654,0.03868909030078668,-0.06597686678469124,0.008063278914775304,0.07074312012094358,-0.05582280615497375,-0.040288749678167236,0.01673645541369415,0.09091162024247747,0.053220079152757095,0.10544935297922181,0.10971611788450436,0.016798399776081063,0.14204248962203864,0.09869778239920729,-0.020427300197417085,-0.01514389450342177,0.0027659381229742383,-0.11507012908278201,0.044719268157876024,-0.01595514533338082,-0.04719987187787848,0.037499211827612726,0.05572807546210764,-0.07575995321513355,-0.04378123114878825,-0.07494934509656823,0.04263503885819542,0.057468820386080144,-0.0077999918160394505,-0.05847210596479486,0.04838728130265506,-0.04880549180233054,-0.06423168099513295,0.042595897622272456,0.013122588333322726,0.038152044864560836,0.0923520804222185,-0.009272898840349184,0.07729227015435794,0.026345406251987148,0.07027807472169173,0.08441797811194304,0.008741046535184985,-0.00966383491531183,-0.009748033642034405,0.031340588831978,-0.024196617761707073,-0.08108931168371074,0.005037697141886472,0.007504295700760059,0.030237212365087245,0.008454247305481354,0.06278151186183761,0.049828776654977036,0.008053531745005477,0.06036412218544843,-0.027228448224903445,0.029287376645387594,0.005838109807305314,0.021747931411935147,0.018076099727543336,-0.07512549365609246,0.049748933675857816,0.011013721878787177,0.07590660906626606,0.019392403223229812,-0.05627469921472418,0.059554358989392625,0.045777480958361046,-0.019160679959103904,0.0011794444320148098,-0.053469343503928464,0.04766206984238949,-0.008097899544261652,0.04337314075125555,-0.07085136591010616,0.006596736018977591,-0.02029028990668822,0.021260627203627137,0.01102044703721465,0.0721999112535607,-0.03563300267580586,0.06881821134140023,0.011134702176662167,-0.02079804043609612,-0.05826038077725089,0.07347353214480157,0.019587235768027955,0.06441142310210171,-0.024467386722828718,0.0367329138838582,0.05185349580109846,-0.07599266641603693,-0.014294506491094684,-0.04358268103770522,0.060950944938801786,0.04146412212713754,0.051568429088332195,0.010579790683625329,0.05923597601357034,0.09270048729634339,0.018883091606881817,0.011323333872543449,-0.028068419489239462,0.03844337895239858,0.0329930745326964,-0.012020851627568857,0.015514778939126353,-0.06644325095696826,-0.04849043947415901,0.015885169972889662,-0.004207097452434236,-0.011143088373542748,-0.06622398618765368,0.03965075344148257,-0.07225803277145679,0.03547293517604702,0.046646348910977964,-0.04879412530246259,-0.04705307652711455,-0.0018386436536471666,-0.023536774985995018,0.07156465483048219,0.03182165769238964,-0.06587579057851316,-0.027569193249370922,0.05976257917485427,-0.01540636133285117,0.02823965106665549,-0.07749708813931792,0.07941202558108902,-0.02702349996267362,-0.061159395655693574,0.07201745302606508,0.0035721773127073836,-0.024119984918306525,0.060810068511734455,-0.004104046707016515,-0.07673919239698392,0.003305151346274668,-0.037866523674922464,0.07181180430443496,-0.06541548321636814,0.03633541843917569,0.04695742052796739,0.06814780102292486,0.005917626340273527,0.05139743573819078,-0.021519808539970736,0.059705330935686536,0.08624976454520512,-0.03213914637355372,0.09245853640770273,0.020077008960735384,-0.037328239718643956,-0.06431769806535438,0.07308166380906753,-0.007854680801060216,0.06461501260887836,0.0038706298024042407,-0.04186422100023227,-0.0759988960678306,0.07294405701096263,-0.07677385480046309,-0.07943295825604198,-0.08026227843291202,-2.4704039693158875E-4,0.016749241977814494,-0.006446091297959727,0.06774037568142233,-0.04419996915716129,-0.07437944341650314,-0.005313488794058352,0.04956113246844629,0.0424671299255452,0.0016959292095556355,0.0517777969110601,0.07727836686273262,0.020543077186946878,-0.0460532451025394,0.07759374684534592,0.021937777084489418,-0.0531174379915361,-0.06864101209156426,0.016447911597445138,0.0037127969417410757,-0.03312685178302568,0.033383789767879035,-0.014522334842632142,0.06590848488280918,-0.02836729922956604,-7.121826203814384E-4,-0.04707865171841348,0.07667777524374553,-0.017493871624150337,0.053758959662305594,0.02361107856053768,0.0666132103777444,0.008073887781251038,-0.04359123390378559,-0.07647328789483375,-0.040798563055639385,0.013472246530069315,0.031527807418547674,0.02031009783921145,0.025751980998374502,0.06418168989313862,0.027774759856864274,-0.03965486570661732,-0.05459008175581147,0.05912406781849226,-0.03438091231063152,-0.07540787876567613,0.030334482231762896,0.0653627895548897,0.009752379309922427,-0.005270992858147305,0.02065219813361191,0.07183999984670383,-0.0668736276324066,4.885549065479083E-4,-0.015677146082697435,-0.029394919963180277,0.015992400352525332,-0.04631890677244049,-0.032820529844339495,0.03545244239350574,0.03139124601820566,0.07381487393340083,0.04294525660002611,0.051648743552982074,0.011136733809359575,0.005184171409943691,-0.050839012829173455,0.054399877966390425,0.07305275838550945,-0.05144839206876993,0.016590233241792512,0.035341015561804315,0.024786469738053735,0.07348557704617084,0.06961564389620392,0.0228353878425598,-0.037742387718145816,0.07415645636722282,-0.056081319778546246,0.030123788867150253,-0.04630971720055423,0.004931894505067286,0.012346405381035985,-0.07625844325000297,0.062223211300689,0.0663479166337517,0.0013116634147905815,0.0037980700467395018,-0.05712544312064938,0.052840058424025615,0.020237035455827626,-0.06286961018445836,-0.03855858955546375,0.022310225632113698,0.052740586100021275,-0.014903177218639846,0.006813612838423924,-0.021712732885948112,-3.184340384801282E-4,0.013117726648042005,-0.06468673993322918,-0.03667923133197264,0.01154854306219412,-0.07116871006488813,-0.07666054174990468,0.035083409360728235,0.032507673148867045,-0.03443981350757975,9.839473898441697E-4,0.0058362778599591325,0.04849002705150629,0.04873510286914881],[0.03604550037721567,0.04937825582502242,-0.04103444473153542,-0.00970814571331827,0.034270088526133356,-0.05402723200546353,-0.03766041911904286,-0.07316318212517467,-0.0780733971823299,-0.07420651443871115,0.06660455476467643,0.05560336534488423,-0.08140909833039488,-0.07820000537248968,0.013545363522960303,-0.03878005530780043,-0.01422330775404166,0.04523195667914716,0.0033573054960126807,-0.038707118721236534,0.06830410438738982,-0.007260843653164765,-0.009260072241217958,-0.033145757426115675,0.05427169105387777,-0.037200047911114205,0.00514176900650834,0.030904395488792286,-0.002754709444738615,0.07380196356757582,-0.06523748127599041,-0.06118103636903888,0.0025565300060311725,0.05328348049898858,0.04450299936681323,0.0242075148273385,0.0030980763271850546,0.03246359399990744,-0.030206386765901917,0.0690777305806063,0.038215482156040294,-0.04753202163105412,-0.046426359343358585,0.02565570091998044,0.05641170398407343,0.04011637762645844,0.06828090901156622,0.04797341342637135,-0.05352538648190338,-0.02474937874770515,0.07312812702415888,-0.07591975040953472,-0.02749454456307592,0.06530929978022934,-0.03170412254220276,0.013997916697745152,0.05485748171465418,0.0012212173866375242,0.012019006387054249,0.03797941884078036,-0.04374145124587013,0.008490372540574179,0.06537597192668715,-0.04308489956149918,0.06375914608506883,-0.005903401782236169,-0.06188828506621363,-0.04455065149988243,-0.045888263918485724,-0.051349532904262404,-0.032230706472938964,-0.04689591982657023,0.06328092912473694,0.028104340356685433,0.006250725937735097,0.01117135708338762,-0.04873255703959133,-0.06986696055478298,0.06294323603207058,0.07529887612146605,0.012088241684745968,0.021398354973060335,0.04435750259285809,0.0532383168737913,0.0010519289733756237,0.07268631340409035,0.002565573357324019,0.03484235727163755,-0.03345681677109273,0.043726169861934824,0.004526756831362043,-0.06871940225943758,-0.0038285773206308466,-0.05127533089655802,0.0632710995000901,0.04888274191522864,-0.04226141069363993,0.033330705977736866,-0.0023800789621322683,-0.038146586265469545,-0.06800904279523119,0.030729717119316616,-0.06780299530768386,-0.06333599625928915,0.013419296511410217,-0.00414458499720867,0.020871790873071436,0.0028453344192680002,-0.03957118213241289,0.02064778180948848,0.07236957045540271,0.069863850557453,-0.0546724106936019,-0.025241753395961748,-0.02140167665790716,-0.04713942787967288,0.06494184272632283,-0.0687557495228299,0.03907028311620504,0.057808372051267126,-0.05431006928310315,0.007213271540459903,0.04831462846320911,0.049098419033437514,-0.044845510420842095,-0.04875804892348894,0.04944017687490757,-0.029550044797765414,0.058822138324864805,0.06300564524669494,-0.027953704571665114,-0.044907884385477465,-0.0027844278470410128,-0.07858967469920347,-0.03599492887129276,-0.009486267354437403,-0.055330157937775834,-0.008860383077926179,0.046741703295992115,-0.019165226313998966,-0.028886242455550888,-0.02215163836363103,0.0483623921483996,0.07133862382793996,0.003231590808166415,0.011907977306829284,0.026514561109459878,0.005878876488593879,-0.012410507606824966,-0.017465066448464236,-0.07477631799658085,0.028908898193868257,-0.019255088233022338,0.0063095043777379334,-0.03573396404670035,-0.05183815662407324,-0.04069421147827914,0.0235633887057411,-0.07495075903599818,0.007584324251305313,0.005341786815668159,0.051565081623048126,0.010021125853993437,0.025448002273325984,0.005696520558924112,0.05700475665234178,0.01352713091752647,0.07663114183298764,0.020768606527149278,0.04108129212066103,0.04252202224523109,0.03227863658655074,0.0205120039005256,-0.061977704957919356,-0.06653382096748119,0.020624829830851232,-0.018633715513388053,-0.07160271296462939,-0.011926186711091916,-0.04772406064074047,-0.024572481429884167,-0.030057389554136848,0.030009375189833785,0.07110942897970864,-0.054919164639185496,0.06893542465985543,0.03197320110535811,0.036584303340347846,0.03078380608824803,0.01031009864793156,0.064258807059977,0.07443792433814803,0.0635829942166701,-0.06759146208346596,0.01677846102321076,-0.03293305047984002,-0.07227847356624086,0.07789835041314785,0.06033921868079206,0.022457188174854828,0.044464340857047535,0.05116636108412284,-0.007609422620467193,-0.014921859219066795,0.011642413590877254,-0.01569556885838864,-0.006223446673704604,-0.0369337224482176,0.05517270996107746,0.00975124651738293,-0.09398957337226174,0.058573054246574406,-0.05177043866757657,-0.048912624097233445,0.01416881026365729,0.01994106965171306,0.060054340722897934,-0.030468530664892707,0.04451920424781703,-0.03742501982253645,-0.06313718496427852,0.04472594032508312,-0.06034695937596399,0.07044918357839802,-0.02043023235360638,-0.042680482289623636,0.0801588263645519,0.07621646890551123,0.012201793808699402,-0.012707344295930938,-0.06669671922645204,0.039782369604882815,-0.03545944909956629,-0.05334245172738047,0.0066420263893780815,-0.03550054625461982,0.04474344590805399,-0.050716788606341656,-0.06162440198685952,0.028989674642229433,-0.08190668691789824,-0.010845545747966319,-0.06602672783721797,0.060985044025188125,0.061383327317704676,0.06955950133991651,-0.04682198696627513,-0.03861170874139352,0.05386496812977451,0.010827367461088061,-0.041053723971819035,0.022982687122078044,0.0632168580767386,-0.06786315479873199,-0.07806821843050533,0.03460077598626713,-0.04083266266118398,-0.07978185465062529,-0.02303598744999769,0.08044714139282097,-0.028913814855865565,0.04193938792295934,0.03584779243763543,0.07251973040721446,0.11873863552281076,0.08714259066344468,0.05199439405405631,0.012234948440371419,-0.03869794914078125,-0.06802056781661182,0.043025797698231984,-0.03066481566043082,-0.059252862566032106,-0.022015211213945545,0.05642095094885702,0.061509402138599525,-0.07383882100364372,0.014929893470803035,0.07908767609410422,0.0316989227178707,0.011698655625333579,-0.02440935143419673,0.04535841747719632,-0.015653941250873268,-0.057076588101169355,0.021729846108167496,-0.04432164072451788,-0.0674407243028415,-0.05524411535839458,0.01964007587379143,0.04607795540110836,0.01028096773593238,0.03320297816280092,0.0570473722562713,0.0568451090699385,0.07629436952217783,0.030726819874661023,0.10218403139539609,0.009901376214866918,-0.03308860291173496,0.035054763476091946,0.09115974795756054,-0.05058195916075774,0.05088599383507915,-0.030401748097045805,-0.01680998165743272,-0.07436113830836746,-0.013945976268099528,0.05888421242392344,0.08028919812485927,0.0728977569927213,-0.012035967176905145,-0.036681880733548416,-0.007088855639394055,-0.05493704359386773,0.04899651467095728,0.07464864671125498,-0.001977771180359099,0.04334463376720276,0.08243246531458596,-0.005675315654600258,-0.061442474114690816,0.0014858327214467097,0.04590792688136791,0.10640894287340628,0.07459024583006006,-0.06426025807455324,-0.06594629503617983,-0.05862205376547876,0.016115551987966444,0.0161749386188023,-0.004344279769650409,-0.04952146147696858,-0.015325835121021578,0.07173330653529475,-0.0331991622665178,-0.057159521622677276,-0.04064496326437462,0.004177649710656997,-0.0115060660651622,0.031098236950360406,0.058118535953594876,0.011758063955657587,-0.048018439122483166,-0.023177903486558463,-0.06403271379948065,-0.025276444537773436,0.021992534111434803,0.07083962653406477,0.04384820982701491,0.060553756297158694,0.012706965517954775,-0.011266527426423483,0.0803697654263675,-0.09953499618414162,-0.0063380563477391716,-0.00848066996811767,-0.03244997181874948,0.03200741147393376,-0.00471158478667518,-0.006766661059683725,0.03413864227359066,0.061635997347160965,-0.02627288751468175,0.01111859199867131,-0.0015777131999090838,-0.01657605482736249,-0.040212436270461886,-0.012451706116145645,0.025337724786438982,-0.04984662174323335,0.0443055073647368,0.04321716474473789,0.01622376222716097,0.038024110320068215,0.056289187581090555,-0.02575474028262992,-0.052312645463452954,0.03985891245772171,-0.06283324956484233,-0.06264772815249806,-0.01283140175286483,-0.09401447762395479,0.044195179094993514,0.009679589271675247,0.03682688189448934,-0.050251837950907784,-0.021861177556300744,-0.06559253787424141,-7.071998709949762E-4,0.021834746478278835,-0.03582844891250855,-0.013832295736066022,-0.05545399782275431,-0.013364390947414082,-0.02842299852131815,0.07378003020078747,0.035214396323932695,0.03930916886670592,-0.04689548952936843,-0.0777250191859109,-0.07847459777352582,0.026038092475758296,-0.014893888749096723,0.0677650070468405,-0.030026648653811463,-0.033552296053868245,0.03278227093935946,-0.08023549371775886,-0.0805484095898988,0.06304375419039436,-0.04609869387857923,0.00375099375830423,0.013778926977139241,0.0548178137125352,-0.09646763231848829,-0.030185968307436195,0.053168116271947924,0.016684612485730513,-0.07157730779709942,0.07440963705443623,0.030503062725850252,0.035924824077582906,-0.033039725194803755,-0.06020733464620073,-0.012728095187427438,-0.09058920937068894,-0.0645779429467687,-0.04409615248708448,-0.02247232111982578,0.057272225180767876,0.04071199777272231,0.08033998256143082,-0.034165221299213254,0.06983265456832144,0.03464569217179267,0.004879750218428363,0.01166129910821063,-0.035018375304049054,0.10910883636405051,-0.038522027035040866,-0.021638930849470026,-0.0957104364598323,-0.09671769846642017,0.02985237341393438,0.018819546886878424,0.006306284556883188,0.013845542263120889,-0.03752958454292646,-3.5335404007186266E-5,4.852000100893372E-4,0.020297079592349415,0.045085746913983565,0.037780192360415944,-0.07422069824903016,0.03081788942144695,0.032391900097245324,-0.006683733531120594,-0.006425652174303452,0.01891244799339756,-0.06497893699035867,0.07389500457702361,-0.006256740751823726,-0.031603671924593756,0.00821690812525993,0.009370698616790159,-0.04019291046344184,-0.025829161662105693,-0.002300999109113866,-2.9491112372591186E-4,-0.06017942488349625,-0.0032694376711252015,-0.03415744925558857,0.015843882868080847,-2.1724609269098416E-4,0.04656793312096019,-0.01838124932743926,-0.006404623434689866,0.017244923828516556,-0.07332627600012985,-0.040288135522925525,-0.03173587741257418,-0.04639219742572327,-0.035496853118746514,-0.007742841512861287,-0.015845426663600563,-0.04301296565625673,0.06705921260768745,0.022113602314531744,0.052085625241623516,0.07821206651851148,-0.058000234977000686,-0.027541774207756522,-0.02198075079727189,-0.02173579372781125,0.12310944146744568,0.09341187398708559,0.04379393754877011,0.06313332657232121,-0.027143137842393042,0.00625424392222614,-0.036745073434498246,-0.04671295337919267,0.01621904344410162,-0.046781803197883734,-0.002033508664131628,0.0018129668426812573,0.07587986338297417,0.00374429944734961,0.05656469058801228,-0.05220290903018498,-0.04985321082808687,0.07776171728918492,0.02264481386173296,0.04394091064382909,-0.014767473476263131,0.07927147587404934,-0.002531503345472882,-0.04692441506803906,-0.004666759992708102,0.022215666406790915,-0.011183359628240809,-0.06578383806064275,0.030905115997272223,0.04149510415546462,0.08069193991903453,-0.018453571866308863,-0.03885404199784407,0.028344930167170723,0.07805580858707145,-0.07763059472983216,0.03128595936453428,0.08038072845138153,-0.05928150699412861,0.05757751905127714,-0.03246416238620253,0.02151630201329254,0.00615215453235402,-0.022315856182218517,-0.042338444330689076,0.041151483651108794,0.030625598150064492,-0.06467450995111315,0.10184191378254713,-0.021733898743528702,0.015842893255529896,-0.055117317847269934,0.0737083200374683,-0.06624838196406538,0.04419072372555281,-0.0393256367354298,0.004242819279048651,0.04726402693179814,-0.033382541305533905,0.08876242917246223,0.003219090495818156,-0.0036549404396308055,-0.036011174293741545,-0.015940058516714706,-0.04692324798746652,0.0389773661277647,-0.053632224186214064,-0.05583735982678034,0.03893569411312463,0.03983609132226319,0.07287840889401606,0.05980364741363254,0.03902256741780831,-0.05837254704075491,-0.06611565264007635,-0.03390916832594888,-0.05970464413003637,0.05603127136251454,0.007544804072489482,-0.05181922292890464,0.0012559767778970927,-0.0790928956239547,-0.03553571704858432,-0.028701016645291583,-0.07083893838715771,-0.057248867568056236,0.07591840055886923,-0.038931757463234774,0.020906710749707846,-0.00498425334368012,-0.004387590448551304,-0.01001326645690695,0.04821536799494858,0.06599114016983954,-0.0312976861225344,0.0015783745286462175,0.0695828736426404,-0.01635574805043942,-0.015142903003690084,-0.006485419404849879,0.0017404819831098608,0.07201576855476383,0.037007735172782164,-0.05504774347077821,0.04486320723228081,0.04950795360462491,0.08314445862567575,0.07809796329461002,0.026342938370341767,0.06620186744379811,-0.07157890890232337,0.05250303319420417,0.05681459666428387,0.015221650581460388,-0.07009821352057316,0.06422170651131018,0.02977848468193854,-0.014359393406262258,-0.012484240255685286,0.013406328795948802,-0.011451829554775639,0.026402337460029027,-0.03025309485528821,0.05570695438834053,0.0502618498705657,-0.07564615121300178,0.05060833080112381,-0.02551638155383658,0.0433632059173379,-0.05351032732483493,0.06405839505131035,0.0691925921838834,-0.020506368562905372,-0.03915984360732131,-0.06099210719955084,-0.05399840930975025,-0.01417516419609238,-0.047056088940036815,0.038718405426296024,0.03891467028052315,-0.04411881570794331,-0.07917343663718597,0.07370837255256996,0.05380689538493347,-0.03034808217663016,-0.07463341601263304,0.011529371499159169,0.05741780432250845,0.009864340971544774,0.0680415685055151,0.05781286647650294,0.0727100381617306,-0.02981159446628554,-0.07484815821983522,0.00595354793281784,0.035540560373635705,2.654219973911853E-4,-0.020964545056708653,0.022439339707531612,-0.0021024704222698896,-0.07102599976283687,0.0518066474444165,0.018777731450900066,-0.01710948271720381,-0.07383754232507993,-0.017900041876930763,-0.07811290367637211,-0.02905500849513217,0.06868780069289564,-0.01720566889993047,0.03828692242011371,0.01583879108463268,-0.06560145813190985,0.010961208417665486,0.02253936210293493,-0.015178788773127755,-0.037219899645644254,-0.07512177910261833,0.03178344220413423,-0.040743798144966356,0.01385402627785215,-0.05606542928706461,0.009095385526391511,-4.9675629784042E-4,-0.04319700655794759,0.03430106086116237,0.003405164506112196,-0.05561750510689778,0.026652414609701764,-0.07177697276738386,0.03285204921380525,-0.06884517485764859,0.03169935367661286,0.013166667328351974,-0.01708312859265078,-0.025004898240472025,-0.014427171605063155,-0.05027509322962505,-0.004819454703501827,-0.04029909817213105,-0.059337012464053665,0.07012282685485387,0.0458487522536879,0.07548739934507279,0.06472066797024364,0.026463781489996896,-0.0011688693361193436,-0.06983405437229222,-0.047245280373133136,0.06867955333875067,-0.06769139832593486,0.035774923231910755,-0.0035103089010549704,0.06091931918258395,-0.07032699825665925,-0.08063038750092721,-0.07748846372946057,-0.06112893667497239,0.021588059955639623,0.043083092489420285,0.057642042570653466,0.0530676889409414,-0.03631483749893811,-0.04215673286627279,-0.037405238281587365,-0.057748192740241296,0.0022451516487918266,-0.07028734462591284,